,0,1,2,3,4,5,6,7,8,9,10,11,12,13,14,15,16,17,18,19,20,21,22,23,24,25,26,27,28,29,30,31,32,33,34,35,36,37,38,39,40,41,42,43,44,45,46,47,48,49,50,51,52,53,54,55,56,57,58,59,60,61,62,63,64,65,66,67,68,69,70,71,72,73,74,75,76,77,78,79,80,81,82,83,84,85,86,87,88,89,90,91,92,93,94,95,96,97,98,99,100,101,102,103,104,105,106,107,108,109,110,111,112,113,114,115,116,117,118,119,120,121,122,123,124,125,126,127,128,129,130,131,132,133,134,135,136,137,138,139,140,141,142,143,144,145,146,147,148,149,150,151,152,153,154,155,156,157,158,159,160,161,162,163,164,165,166,167,168,169,170,171,172,173,174,175,176,177,178,179,180,181,182,183,184,185,186,187,188,189,190,191,192,193,194,195,196,197,198,199,200,201,202,203,204,205,206,207,208,209,210,211,212,213,214,215,216,217,218,219,220,221,222,223,224,225,226,227,228,229,230,231,232,233,234,235,236,237,238,239,240,241,242,243,244,245,246,247,248,249,250,251,252,253,254,255,256,257,258,259,260,261,262,263,264,265,266,267,268,269,270,271,272,273,274,275,276,277,278,279,280,281,282,283,284,285,286,287,288,289,290,291,292,293,294,295,296,297,298,299,300,301,302,303,304,305,306,307,308,309,310,311,312,313,314,315,316,317,318,319,320,321,322,323,324,325,326,327,328,329,330,331,332,333,334,335,336,337,338,339,340,341,342,343,344,345,346,347,348,349,350,351,352,353,354,355,356,357,358,359,360,361,362,363,364,365,366,367,368,369,370,371,372,373,374,375,376,377,378,379,380,381,382,383,384,385,386,387,388,389,390,391,392,393,394,395,396,397,398,399,400,401,402,403,404,405,406,407,408,409,410,411,412,413,414,415,416,417,418,419,420,421,422,423,424,425,426,427,428,429,430,431,432,433,434,435,436,437,438,439,440,441,442,443,444,445,446,447,448,449,450,451,452,453,454,455,456,457,458,459,460,461,462,463,464,465,466,467,468,469,470,471,472,473,474,475,476,477,478,479,480,481,482,483,484,485,486,487,488,489,490,491,492,493,494,495,496,497,498,499,500,501,502,503,504,505,506,507,508,509,510,511,512,513,514,515,516,517,518,519,520,521,522,523,524,525,526,527,528,529,530,531,532,533,534,535,536,537,538,539,540,541,542,543,544,545,546,547,548,549,550,551,552,553,554,555,556,557,558,559,560,561,562,563,564,565,566,567,568,569,570,571,572,573,574,575,576,577,578,579,580,581,582,583,584,585,586,587,588,589,590,591,592,593,594,595,596,597,598,599,600,601,602,603,604,605,606,607,608,609,610,611,612,613,614,615,616,617,618,619,620,621,622,623,624,625,626,627,628,629,630,631,632,633,634,635,636,637,638,639,640,641,642,643,644,645,646,647,648,649,650,651,652,653,654,655,656,657,658,659,660,661,662,663,664,665,666,667,668,669,670,671,672,673,674,675,676,677,678,679,680,681,682,683,684,685,686,687,688,689,690,691,692,693,694,695,696,697,698,699,700,701,702,703,704,705,706,707,708,709,710,711,712,713,714,715,716,717,718,719,720,721,722,723,724,725,726,727,728,729,730,731,732,733,734,735,736,737,738,739,740,741,742,743,744,745,746,747,748,749,750,751,752,753,754,755,756,757,758,759,760,761,762,763,764,765,766,767,768,769,770,771,772,773,774,775,776,777,778,779,780,781,782,783,784,785,786,787,788,789,790,791,792,793,794,795,796,797,798,799,800,801,802,803,804,805,806,807,808,809,810,811,812,813,814,815,816,817,818,819,820,821,822,823,824,825,826,827,828,829,830,831,832,833,834,835,836,837,838,839,840,841,842,843,844,845,846,847,848,849,850,851,852,853,854,855,856,857,858,859,860,861,862,863,864,865,866,867,868,869,870,871,872,873,874,875,876,877,878,879,880,881,882,883,884,885,886,887,888,889,890,891,892,893,894,895,896,897,898,899,900,901,902,903,904,905,906,907,908,909,910,911,912,913,914,915,916,917,918,919,920,921,922,923,924,925,926,927,928,929,930,931,932,933,934,935,936,937,938,939,940,941,942,943,944,945,946,947,948,949,950,951,952,953,954,955,956,957,958,959,960,961,962,963,964,965,966,967,968,969,970,971,972,973,974,975,976,977,978,979,980,981,982,983,984,985,986,987,988,989,990,991,992,993,994,995,996,997,998,999,1000,1001,1002,1003,1004,1005,1006,1007,1008,1009,1010,1011,1012,1013,1014,1015,1016,1017,1018,1019,1020,1021,1022,1023
apricot1.jpg,-0.0047588036,0.025544833,-0.0042280727,-0.026570993,0.018125294,-0.019772545,0.010699664,-0.0008323582,-0.029824058,0.007503207,0.06358609,0.014031469,0.00798663,0.019682638,-0.046348847,0.022022763,-0.0037054075,0.017012563,0.025801333,0.010060939,0.0031628362,0.11275585,0.029035583,0.009906525,-0.018695636,0.014571112,0.024684453,0.0054398407,-0.03378703,0.0004722343,0.040137365,0.013293858,0.03352348,0.046183806,0.027524412,-0.02418856,-0.018112658,0.0042497464,-0.007566763,-0.02611477,-0.04964474,0.042712085,-0.054543898,0.040030207,-0.009732147,0.0030173576,-0.018681528,-0.092238925,0.053882167,0.011630549,-0.026127417,-0.016668882,0.03261277,0.0262967,0.00042695357,0.027555827,0.025133323,0.009864266,-0.033876516,-0.0138315605,-0.044602655,0.018528018,-0.00489105,-0.046982024,-0.04712545,-0.0078638485,-0.004367829,0.00779674,-0.032598168,-0.015533667,0.0083132675,0.0045754644,0.008900614,0.028322004,0.006903906,-0.012852438,-0.06233316,0.04145344,-0.032340772,0.034841206,-0.019739004,-0.012515791,-0.0037184623,-0.0030685624,0.010365078,-0.045116857,-0.015692085,-0.013572208,-0.021802919,0.031754155,0.029240252,0.007861702,0.005156535,-0.0017525202,-0.01218168,-0.00033799425,0.0127793085,0.024719689,-0.0060458556,0.010655298,-0.02342848,0.011573108,-0.003364396,-0.01874943,0.0060206186,0.026703466,0.012381591,0.019005703,-0.034975234,0.025691826,0.038251497,0.017015375,0.003363439,-0.018952722,-0.0045674965,-0.04327473,-0.016053954,-0.019316956,0.025961153,0.014592268,0.004365433,-0.026944978,0.0034633921,-0.03463911,0.007280808,0.030398302,0.009908529,0.0011814712,0.020133166,-0.013708181,-0.023356682,-0.04000199,-0.020160617,-0.02091217,-0.013436399,0.023823172,0.018044187,-0.0003350802,-0.031216152,-0.017943546,-0.009366772,0.029056532,-0.0133451205,-0.033669136,0.0040673083,0.012181776,0.011459936,-0.0053346446,0.03294556,-0.030327974,-0.023921046,0.0026216705,-0.02845476,-0.0071352795,0.022241244,0.03532386,-0.0036469363,0.00146583,-0.0027562391,-0.01083854,0.0030928925,0.016327243,0.0012755707,-0.0010585658,0.004700948,-0.02169074,0.015231559,-0.06272846,-0.014202531,-0.018442396,-0.019346895,-0.010445467,0.005132698,-0.026174903,-0.039308205,0.015457173,0.026574142,-0.025299193,-0.012017963,-0.022183388,0.012239359,0.023150807,0.009388605,0.031149067,0.0017967818,0.0032901121,0.051696155,-0.015827592,0.010426873,-0.019151034,-0.014667558,-0.011371679,-0.009106633,0.041812398,-0.0135975,0.004373499,-0.0058334256,-0.00970198,0.0153787695,0.013598718,0.028072543,-0.030227456,-0.00090239034,0.020499354,0.017092464,0.009902181,0.009939837,-0.008391203,0.0061546653,-0.016507635,-0.037581116,0.0033468427,-0.0048126476,0.03269476,0.026309483,0.010480072,-0.022144852,-0.028635759,-0.016836884,0.02738734,-0.047616668,-0.002245432,0.008230199,-0.01550346,0.023587348,0.026740346,0.02622161,0.0006398719,0.026032051,-0.0133957695,-0.0570666,-0.050924417,0.04098507,-0.034619197,0.0072775995,-0.06965462,-0.017648825,-0.017338619,0.039584458,0.00043829333,0.010954241,0.03128795,0.010388098,-0.023170669,-0.009775072,-0.024242146,0.011764605,-0.011794582,0.025642147,-0.0017468132,0.040754277,0.0118764,-0.0015827734,-0.013424682,0.013171705,0.01620224,0.023731312,-0.024393167,-0.035757046,-0.0502007,0.019611059,0.036723696,0.05169282,0.009559904,0.025734453,0.033073228,0.04107124,-0.030040437,-0.028042633,0.017771726,0.01551869,-0.04092266,-0.029747827,-0.02514322,0.025674785,-0.0358374,0.031862702,-0.018149333,-0.032116916,0.04088981,-0.0014977786,0.017364195,-0.0059428997,0.00728644,-0.005516203,-0.00414298,-0.015500706,0.01660482,0.027947774,-0.040027462,-0.0046838727,-0.038505863,-0.02940299,0.007074726,0.010441595,0.02588709,0.0005819211,0.037304748,0.023345131,0.015334645,0.010958414,-0.024806052,-0.01565882,0.016212733,-0.0185905,0.00067963736,0.041209284,0.046991576,-0.023055695,-0.013630256,0.029195486,-0.0065683583,-0.0130712055,0.029466335,-0.024001077,-0.022444244,-0.009656675,-0.008761071,-0.048120297,0.016295679,0.018024327,0.0002893686,-0.022315163,-0.009560169,-0.01027225,0.025550008,0.050550077,0.01778185,0.007884882,-0.050701387,0.015303662,0.005217394,-0.016135186,0.023171162,-0.0052481885,0.0009504896,-0.019078474,0.016874408,0.000603146,0.0014721502,-0.018314764,0.00019358816,0.011886888,0.009535964,0.035688084,0.006271999,-0.07566918,-0.0048710164,0.023081517,0.035268247,-0.010278088,0.001928601,-0.024440346,0.0033034824,-0.00063429755,-0.026809497,-0.02627173,0.00579224,0.02584823,0.008565925,-0.04373799,0.12853503,-0.020090094,-0.01648594,0.03841719,0.01601042,0.0378499,-0.0060093077,0.016512062,-0.02794891,-0.014122634,-0.016624132,-0.015570351,0.0015580672,-0.023515964,0.010165242,-0.021352267,-0.00035895765,-0.0018741502,0.0068211397,-0.0145230675,0.011098236,-0.040157538,-0.008157402,-0.018186456,0.03203681,-0.013042931,-0.0074538505,0.03296485,0.04006278,-0.015909744,-0.0054379464,0.0064427657,0.0028160787,-0.0006743762,-0.0030087177,-0.008350248,-0.01310444,0.033961263,-0.029436743,0.018538374,0.012976174,-0.0036264756,-0.045671277,-0.016454041,-0.01204821,0.015079732,-0.013570304,-0.022387786,-0.0072040013,-0.029302718,-0.012273439,0.0065432247,-0.022562452,0.0002599179,-0.014698429,-0.062592454,0.017486464,0.009111652,0.0134761585,0.013108862,-0.026577722,-0.007997853,-0.024992896,0.03160523,0.0031125057,-0.010640908,-0.0058977297,0.005038182,-0.038558353,-0.009360858,0.00621649,-0.01085349,0.025200313,-0.07670063,-0.016141154,0.0036117055,0.018048279,0.018634902,-0.0014456713,0.029598596,-0.02023374,0.003976435,0.019203233,-0.011405114,-0.008903673,-0.036013957,0.027323654,0.002192523,0.029051984,-0.055763755,0.017046394,0.018177312,-0.0050040865,0.013227404,0.00182245,0.021334909,0.4522967,0.016034221,-0.015197939,0.022612508,0.044977013,0.008914133,0.0074396166,-0.02532546,0.036486343,-0.010983802,-0.012375421,0.017316502,-0.006476339,-0.044254575,-0.038150188,-0.034078177,0.029741224,0.038551193,-0.04779486,0.03398964,0.0068838936,-0.020889137,-0.0050580474,-0.024895662,0.02137685,-0.016798273,0.020367762,0.0049652057,0.004194412,0.010110924,-0.03190735,-0.014004149,-0.031455755,0.036212947,0.00094166404,-0.012419772,-0.00072852994,0.007869519,-0.045692887,0.0026167897,-0.010176778,0.016139006,-0.023096172,-0.008532609,-0.0046137637,0.018704541,0.025361119,-0.030782335,-0.034232277,-0.010319526,-0.0007563944,-0.016243774,0.019407894,-0.03921493,0.05059585,-0.015484968,0.029949956,-0.0043310206,-0.012375955,-0.008035953,0.035025854,0.044959676,-0.026288662,-0.049172293,0.0024674416,0.0017913794,-0.020734929,0.0215631,-0.00316394,-0.029027514,0.027924735,0.0042891074,0.018518157,-0.04627919,0.0013049587,0.0036207081,-0.0062090335,0.037385724,-0.0022738962,-0.017608965,0.025533637,0.0026560174,0.016535131,0.056842383,0.0057243784,-0.046163626,-0.022115998,-0.016846715,0.016536018,-0.019974237,0.02488248,-0.023527429,-0.018460954,0.016479803,-0.027428877,0.006474243,0.010770372,0.011626053,0.01090038,0.0358562,0.028572742,0.0018430608,0.0012184839,-0.0034271763,0.029659577,0.012721558,0.016114926,-0.026301237,-0.0034194791,0.02543913,-0.02981773,0.006110232,0.024455423,-0.00074298104,0.019365277,0.012257786,-0.005243569,-0.010299742,-0.009297734,-0.004237275,0.038663704,0.020665443,0.038321774,-0.019740174,-0.0026523902,-0.017626943,0.022685857,0.022209875,-0.025364071,-0.004466284,-0.0124745285,-0.0027180451,-0.056027755,-0.043297037,-0.039635733,0.019930854,0.033074804,0.04477011,-0.004510585,-0.00979719,0.022202814,-0.030442199,-0.031811267,-0.018775301,-0.0323943,0.020509403,0.005974474,-0.011696967,0.0019604068,-0.023682334,0.014280575,-0.015722392,0.0009087043,0.014626547,-0.054950632,0.006768897,0.0075739846,0.008098136,0.012002226,0.005118713,-0.027248664,0.021001194,0.028692203,0.04060966,-0.007684632,-0.005394142,-0.014537448,-0.012455574,0.011519918,0.033071496,-0.037977174,-0.016982965,-0.02548512,-0.034702916,-0.09133048,-0.010256555,-0.009697376,0.03786293,0.018806752,-0.023032013,-0.013906506,-0.0118042575,-0.010198764,0.040782303,0.030256813,-0.009497867,0.025130138,-0.005380674,0.038392477,0.046918295,0.008942484,-0.041253503,0.0010008828,-0.013211392,-0.018055588,0.033089925,0.011660043,-0.0041034482,-0.014765617,0.022773689,0.024836276,-0.017828276,0.013495854,2.38268e-06,-0.0025761544,0.017067188,-0.002823414,0.0024111494,0.010244239,0.013310419,-0.012233015,-0.005248056,0.034406565,-0.024010537,-0.0077854935,0.013321545,0.008640193,0.019911839,0.017787693,-0.0028058996,-0.0002663893,0.003428441,-0.023525266,-0.004421804,0.0005635511,-0.030993871,3.521768e-05,-0.007133023,-0.01567891,0.017875327,-0.010124188,0.026792511,-0.15856732,-0.0012502105,0.015833799,0.008607971,-0.01797845,-0.02846871,0.013154361,0.042170487,0.014474156,0.014571378,-0.029596036,0.031227924,-0.031140074,0.014405251,-0.008288749,-0.0021540495,0.0020481455,-0.0037902328,0.032373097,-0.010927511,-0.02486823,-0.057383288,0.014662288,-0.014786805,0.023626268,0.025360469,0.0008170872,0.017937949,0.04041673,-0.0069361157,-0.0042758626,0.0063162143,0.04593162,-0.0073705353,0.021435093,0.014714862,-0.036227617,-0.050059322,-0.0031003559,-0.0067404015,0.012141646,-0.046098616,0.005686335,0.029051831,0.012539867,0.05945536,0.027704982,0.029093271,-0.012421828,-0.022283692,-0.021394907,-0.0616444,-0.030303385,0.011983648,-0.01982029,-0.014093109,-0.05165648,-0.025929015,0.03193998,0.012165084,-0.014693731,0.024774019,0.008524011,-0.010229892,-0.024098892,-0.028872853,-0.39693332,0.04227285,0.04135285,-0.02057528,-0.013384849,0.020089861,-0.05023651,0.0029049285,-0.009650462,0.026072329,-0.009941207,0.03337879,-0.015148959,-0.01602852,0.025556369,-0.014963995,-0.029688315,0.013684891,-0.0015793296,-0.020545777,-0.019893186,-0.0010461579,-0.009528662,-0.00033008316,0.01343462,0.017969837,-0.017939506,0.015006048,0.038509425,-0.009308171,-0.013202812,0.011522577,-0.0031930641,-0.0039710742,0.031781066,0.0655482,-0.023912558,-0.022050854,0.06632921,-0.0075582583,0.018308267,0.021570517,0.004680636,-0.0065810964,-0.018587638,0.06343127,-0.04360427,0.019921571,-0.017060949,0.0020818647,-0.0052777217,-0.004203502,-0.013183972,-0.018958857,-0.0054807244,-0.018428966,-0.021454873,0.0005763957,-0.04115571,0.012318914,0.00012891319,-0.01990053,0.0010174101,-0.00087022904,-0.000743973,-0.021104284,0.0060337507,-0.025473393,-0.024934206,-0.033847842,0.014878909,0.015873726,0.02028319,0.012201932,0.016008254,0.03941848,-0.01877381,-0.0022876682,-0.03481113,0.011431572,-0.0017199772,0.022219542,0.027208438,-0.013911536,-0.016867008,0.01826474,0.027380716,0.015194766,0.014184187,-0.026647953,-0.0026934552,0.016154217,-0.0010568629,-0.00093227625,-0.010572231,-0.049560435,-0.0116315745,-0.004428141,0.009770548,0.034803797,-0.040254656,0.0075415303,0.017259184,-0.011430309,-0.021268575,-0.010681628,-0.013126929,0.0066906963,0.026213596,0.014827189,-0.052267917,0.0055396724,6.00863e-05,-0.0028383974,-0.0854127,0.008189109,0.004267945,0.018311156,0.047600787,0.0038934357,0.019101113,0.048628006,0.029456884,-0.015168809,0.0043363776,0.0036531016,-0.024295285,0.026125886,0.025981408,0.004901965,-0.018212624,-0.018032646,-0.018747717,-0.023307867,0.0072819768,-0.03336156,-0.05278257,-0.0109228995,-0.018816128,0.024155255,-0.0025881592,0.016208299,-0.0034720486,-0.0075191697,-0.022128774,0.010488197,-0.023927253,0.0044075013,-0.012635447,-0.008470513,0.004750142,0.021220306,0.008305848,-0.029503185,0.0061397064,0.025038889,0.011794549,0.038589746,0.0013866305,-0.016014935,-0.026551494,0.029785551,-0.013794357,0.018659016,0.02707551,0.006628741,0.007028141,-0.0077351024,0.020143887,-0.02690916,-0.03590949,0.044044483,-0.014877716,0.030131837,-0.040465225,-0.012172348,0.024117675,0.02021434,0.010042586,0.0031784095,0.0033917995,0.025359467,0.021461772,0.021362368,-0.00330303,-0.02975486,-0.016457465,-0.0039639357,0.029015427,0.020579744,0.008628836,-0.024687342,0.017363202,-0.015562992,-0.030403854,0.029116701,0.014393052,0.01132381,0.039276235,0.001558181,-0.018374905,-0.0006313375,-0.049453095,-0.020950625,-0.014753338,-0.036686957,-0.024132457,-0.03265486,-0.0065918323,0.040482033,0.0011804923,-0.009644811,-0.0047928677,-0.021958543,-0.009357555,-0.004541528,0.015612112,-0.015793448,0.025493577,-0.021243434,-0.008061713,0.0048868367,0.009634673,0.021388028,-0.022820415,-0.018050302,-0.012550916,-0.004908138,0.028404197,-0.0056872284,-0.040831562,0.021234803,0.037356786,0.022827325,0.020557065,-0.03993416,-0.014079904,-0.013089855,-0.020150362,-0.008404739,-0.025863994,-0.0098464815,-0.007999101,0.015363548,-0.0113722375,0.008067386,-0.007298495,0.037725653,-0.010608082,0.035668693,0.047106307,0.01254839,-0.0051878844,0.0030105428,-0.016531235,0.009065346,-0.016141832,0.01730883,-0.016896958,0.010210274,0.009975014,0.005709751,-0.0060062017,0.0042821644,0.006165861,-0.029684838,0.028239632,0.048861742,0.015557262
apricot2.jpg,-0.014658189,0.010733867,0.0013833717,-0.016045738,0.01818417,-0.0037373812,-0.005842226,0.018258778,-0.024033275,0.0085189715,0.039610762,0.02523698,0.036338456,0.0030026096,-0.029258361,0.035752416,0.0030736658,-0.009244092,0.006962153,0.020195536,0.04851826,0.091890596,0.04524036,0.017015928,-0.028916692,-0.007835429,0.014647305,-0.01649831,-0.038903143,-0.0022821948,0.03576123,0.00024665208,0.018909214,0.031651426,0.02146678,-0.0008704887,-0.029750863,0.01940356,-0.0119895,-0.026723426,-0.030321594,-0.0010951902,-0.027693424,0.053825825,-0.04937665,0.014643598,-0.0126172695,-0.04061795,0.018747766,-0.0029859233,0.0051427423,-0.03694025,0.03269971,0.011224761,0.021053644,0.029378977,0.024422709,0.018452017,-0.032955714,-0.030524714,-0.033524714,0.0034354657,0.0014399774,-0.033177298,-0.0031394155,0.0034685887,-0.014468593,-0.0033639567,-0.024824865,-0.010683534,0.014720718,0.005527212,0.02456967,0.0329587,-0.0068738796,-0.016881168,-0.080771945,0.0024672109,-0.03281091,0.0403181,-0.05948021,-0.03213272,-0.04207637,0.018645786,-0.006645229,-0.042600393,-0.010677714,0.0072097364,-0.017662384,0.04045344,0.0230032,0.008123682,-0.0018715985,0.010298862,-0.008149813,-0.030436285,0.04645157,0.016683675,-0.01682899,0.010731302,-0.01611285,0.011022411,-0.010846605,0.016354792,-0.025580999,0.044661157,0.006376493,0.0054491367,-0.020371217,0.021102488,0.03713917,0.01629579,-0.0014161175,-0.0067668674,0.0014741694,-0.035631184,-0.04437849,-0.0132655585,0.019738397,0.015396159,-0.0007716129,-0.023239959,-0.016495004,-0.016500264,-0.04954547,0.031925365,0.004584751,0.044970315,-0.00012133735,-0.02188316,-0.024597378,-0.023162225,-0.01859437,0.0008051187,0.0031607696,0.034307066,0.021504205,0.0056603267,-0.038163222,-0.0130004,0.0019182572,0.03072019,0.005726835,0.0033275045,-0.004563936,-0.026093476,0.04785555,0.022501271,0.040493492,-0.027758662,-0.012242085,-0.022469528,-0.009134103,-0.020641938,-0.02192934,0.023683166,-0.014078994,0.015044635,-0.0025613115,0.010266893,-0.018361725,0.01051516,-0.007053826,-0.0024421094,-0.004291584,-0.007943109,0.013939423,-0.04626385,-0.018787269,0.001772443,0.010107355,-0.020542499,0.013157191,-0.0031755157,-0.026343245,0.02736422,0.008018166,-0.014681287,0.006109368,-0.034829866,0.003281787,0.01601338,0.0017367222,0.03437713,0.027306233,-0.0033510665,0.027169425,0.0059549925,-0.011205461,-0.040263355,-0.017788278,-0.027697468,0.0076197493,0.02501391,-0.026395762,-0.023973875,0.0036758434,-0.028476369,-0.0021316952,0.03131991,0.027748644,-0.03805285,0.005670632,0.034359608,0.0049891444,0.018609852,0.009225365,0.0058360323,0.0130360015,-0.005767601,-0.027735293,0.016961912,-0.01324673,0.03665036,0.008371642,-0.006982299,-0.0046077175,-0.05229004,-0.00045104968,0.0017052487,-0.08099485,0.028385604,-0.0017191821,-0.006431847,0.019666316,-0.014207937,0.030582655,0.0068054334,0.047405265,-0.0060126265,-0.040080342,-0.027991498,0.010275029,-0.027734125,-0.02028629,-0.08676126,0.0038559232,-0.015980672,0.026913619,-0.01187495,0.035059795,0.005868505,0.0136873275,-0.01593414,-0.04253438,-0.0109412335,-0.005587417,0.008861863,0.011587998,-0.018712569,0.05617578,0.010801807,-0.011589337,0.012068899,0.0017879432,0.01599856,0.01130052,-0.019431463,-0.05000596,-0.0064724707,-0.0036663995,0.013174619,0.04011901,0.019042946,0.012866263,0.033058636,0.027961774,-0.030442221,-0.04951809,0.003999401,-0.0060196933,-0.05217305,-0.033267464,-0.041020826,0.0381166,-0.011778839,0.04884402,-0.0039231465,-0.019150741,0.014161092,-0.013432906,0.011695226,0.00072028703,0.0045952126,-0.025768759,0.020988667,-0.020706281,0.011989591,0.0043303207,-0.046393905,-0.016511835,-0.030166414,-0.04445118,0.01883049,0.029741459,0.028449532,-0.02042649,0.039592955,0.017260734,0.028953591,0.025784783,-0.032524984,-0.015985975,0.00866432,-0.02017879,-0.024042822,0.025097458,0.004842963,-0.007476873,-0.026527647,0.039840892,-0.007995594,-0.034157738,0.020112714,-0.020821774,0.0019528342,0.013752933,0.015440932,-0.030420905,0.034085616,-0.0009674113,-0.010397136,-0.03055997,0.003632673,0.0002964323,0.052880228,0.02487277,0.0020876701,0.010598683,-0.020865103,0.02223894,-0.029359892,0.012888407,-0.0112334825,-0.010402328,-0.017291773,-0.025369208,0.009777972,0.031170068,-0.0018829713,-0.008244689,-0.011255865,0.0033675737,-0.0059299497,0.05804478,0.044259515,-0.00926964,0.0118831955,0.029841965,0.052354164,0.000836561,-0.0015359528,0.004461986,0.0031197716,0.019125711,-0.047303565,-0.033674702,-0.0045570927,0.043087307,0.03573837,-0.0033454276,0.110495046,-0.016674295,0.01147616,0.04846999,0.018321019,0.01548031,-0.00771202,0.01844863,-0.017681772,-0.014252752,-0.013183117,0.015714858,0.016331075,-0.005245715,0.015583399,-0.039831873,-0.015377651,-0.0030783997,-0.021158742,-0.021430679,-0.011431761,0.0021003536,0.014792138,-0.016854726,0.03958192,-0.027439743,-0.009651771,0.0049329163,0.034204584,0.006568227,-0.016817844,0.0035219607,-0.0004577661,0.018236678,-0.0023180598,-0.036591507,-0.0060290596,0.036711194,-0.0118149305,0.0094460035,0.006714019,0.034986958,-0.015270978,0.023174686,-0.008086951,0.018698882,-0.00022473998,0.0018530113,0.009849774,-0.015417209,0.034713466,0.012542022,-0.015840154,0.007818173,0.008183738,-0.04129142,-0.018158073,-0.028060831,0.04688012,0.002562455,-0.019302398,-0.0028810345,-0.007921713,0.018560998,0.00020813047,0.0036598495,0.00015106243,-0.009750257,-0.019799175,-0.030185979,0.023303814,-0.021121541,0.015779305,-0.09600256,-0.015986612,0.036910344,0.015138098,0.006968021,-0.008928007,0.01112082,-0.0041350136,-0.005413067,0.017131636,-0.02390975,-0.02212337,-0.03681645,0.012788579,-0.011406074,0.010826788,-0.028407726,0.03346554,0.009061374,0.0074972995,0.028431084,0.014949627,0.007970934,0.44108528,0.008551472,-0.038041133,0.014623486,0.02893377,0.0014271411,0.024712518,-0.0056285495,0.02140869,-0.009189599,-0.025282018,-0.011147482,-0.028578043,-0.034931537,-0.048422705,-0.003279972,0.03076106,0.050046194,-0.04936783,0.015409242,0.058707096,-0.020308277,-0.0132352095,0.023491265,0.03545231,-0.0072142505,0.010404028,0.014022473,0.005959915,0.012735854,-0.02596037,-0.038163546,-5.6934456e-05,0.017370837,0.0022255685,-0.0032665103,-0.021244025,0.0012306293,-0.031682495,0.008143691,-0.020992387,0.033557195,-0.01340181,-0.029021924,-0.009390224,0.017016418,0.010453657,-0.04139694,-0.0308638,-0.01466258,0.014924195,-0.008162321,-0.025726285,-0.081571534,0.056300573,-0.026905928,0.016296614,-0.024890238,0.0027877511,-0.00815573,0.017929684,0.024963759,-0.017771846,-0.05445907,0.0055985646,0.018314093,-0.0039491835,0.025662305,-0.01122524,-0.020558888,0.024322608,-8.493247e-07,-0.020430006,-0.058117375,0.005836405,0.039461777,0.010959761,0.034825634,-0.026274148,0.011372766,0.05967462,0.03336532,0.019053448,0.048905127,0.014014719,-0.0052775694,-0.0055891117,-0.020731755,0.023867667,0.016301744,0.02954638,-0.020497454,-0.012517484,0.029856738,-0.011427809,0.010750035,0.016812583,-0.006908177,0.028760172,0.009005043,0.028693197,-0.0112902755,0.005686367,0.008552599,0.044606227,0.028342599,0.014727195,-0.019810144,-0.008085027,0.010830031,-0.014082304,-0.016507348,-0.003835826,0.004754635,0.0037196388,0.024363851,0.017901879,0.0032269647,-0.004548526,-0.034211617,0.03518326,0.026248863,0.0036414836,0.004464456,-0.019979494,-0.039719332,0.037352636,0.013180628,-0.066041425,0.0031615708,-0.028021824,0.033367205,-0.015120882,-0.015878344,-0.034992896,0.012138847,0.01586666,0.04074495,-0.013637478,-0.018447198,0.0005061886,-0.018480558,-0.039389703,-0.012632783,-0.00992125,0.01573244,0.021628011,-0.012861297,-0.0055422727,-0.018280404,0.029594446,-0.012133217,0.002569625,-0.013568239,-0.07042047,-0.0009594343,0.03504783,-0.008908379,0.038079154,-0.025920896,-0.015355149,-0.0017319182,0.0018517683,0.061394706,0.024039684,-0.00826019,-0.0035710323,0.011164977,0.023038853,-0.015997019,-0.025655406,0.0014325747,-0.0068386467,-0.037481654,-0.0952022,-0.03389601,0.0028666558,-0.011377436,0.014820594,-0.04551011,-0.0059970464,-0.02842476,0.0061086835,0.048319712,0.038815532,-0.0071788137,-0.004631844,0.0046570366,0.01920566,0.0490191,0.010689507,-0.067054115,0.016986223,-0.0023162127,-0.025831906,0.026304295,0.02469475,0.0132237105,-0.040559944,0.0041382024,-0.00059449836,-0.01027586,-0.025183907,-0.010658265,0.016415307,0.012671248,-0.015766514,-0.0060237735,0.00357568,-0.011471686,-0.023217864,-0.016843941,0.00066452706,-0.028749866,-0.018719308,-0.013064258,-0.03174369,-0.016608564,0.03573525,0.009428656,-0.0015404525,0.03890529,-0.022031363,-0.027891485,0.017971015,-0.044590198,-0.013903429,-0.013746299,-0.021283237,0.022378778,0.0048871636,0.03899218,-0.16072026,-0.031299908,-0.005189219,0.0061849924,-0.009268416,-0.012001107,-0.0151038235,0.04325967,0.019323878,-0.022273757,-0.022688946,0.021261407,-0.012130375,0.035831638,0.013876192,0.0102328425,0.0072672805,-0.0058626267,0.01555127,-0.014809128,-0.009041711,-0.01608686,0.016298609,0.0076247086,-0.004093768,-0.0035685399,-0.021441188,-0.014744112,0.04241017,0.003879954,-0.035160355,0.019461581,0.007746405,-0.027160302,0.01975281,0.013919118,-0.01594959,-0.029076463,-0.012794466,-0.029154629,-0.005518164,-0.011788734,0.009200443,0.03682401,0.02434633,0.048791785,0.016240727,0.003373346,-0.013676713,-0.033240978,-0.022418218,-0.09628094,0.0022500965,-0.011396394,-0.015933342,-0.01972652,-0.031233534,0.006106363,0.0069810706,0.012278282,-0.017887106,0.015442053,0.012477488,-0.03393846,-0.069720626,-0.01518107,-0.3914387,0.028701615,0.02587811,0.00024955696,-0.00054489763,0.027510215,-0.05740446,0.008867485,-0.009389565,0.0029605404,-0.018896518,0.02526326,0.012562337,-0.0015928033,0.0265073,-0.0006256071,-0.011451079,-0.02369346,-0.00697678,0.0035483937,-0.015341778,0.010071335,-0.026598077,-0.033190306,0.008151969,0.018535534,-0.023451695,0.012048984,0.07168983,-0.021493092,-0.02354496,0.02560771,0.0035873775,0.002721223,0.026306447,0.039199304,-0.013409851,-0.01458407,0.03974195,-0.0031563868,0.004451632,-0.018942391,0.027228523,0.016104672,-0.013579134,0.021260524,-0.020705327,0.023631243,0.0050679124,0.020991122,-0.026344305,-0.004741367,0.021116236,-0.004556215,-0.0041614682,-0.018775236,-0.0103247715,0.012208695,-0.035694942,0.03643199,0.004247854,-0.020376852,-0.023999138,-0.006165928,-0.014792584,-0.02312604,0.015327136,-0.049641214,-0.055577643,-0.024039,0.018225523,-0.0006956473,-0.007371754,-0.015984183,-0.0071918564,0.0067609595,-0.017488712,0.021984361,-0.024497177,0.029160583,0.0054357317,0.008709208,0.008033935,-0.007950792,-0.017406486,-0.008473208,0.00056726794,-0.027215783,-0.006493838,0.0028438896,-0.022150118,0.0063414075,-0.001318036,0.0034117792,0.013960516,-0.04263872,-0.00028421904,-0.016361428,-0.00034886636,0.030299706,-0.028453616,0.015984068,-0.006801339,0.018016258,0.01140019,0.009020674,0.032608468,0.030247962,0.016643157,-0.001203942,-0.011977421,0.005138415,-0.015615747,0.06786772,-0.06030732,0.0024363573,-0.0076910066,0.0012193824,0.027447885,0.0073374882,-0.011843202,0.022900788,0.0036852814,-0.04575392,0.010302686,0.032499745,-0.025277901,0.027478011,0.01848436,-0.0072763343,-0.031832978,-0.011910649,0.00064734305,0.0016960556,-0.0033314065,-0.02162418,-0.041441217,0.0052550873,-0.008768085,0.008846881,-0.006586116,0.019447956,0.029347617,-0.009731048,-0.014992096,0.025934948,-0.0065379646,0.021805951,0.016169555,-0.004280227,-0.0073684542,0.02166605,0.020927563,-0.035018113,-0.011906142,0.022367347,0.024467599,0.035227604,0.0047016335,-0.0061793355,0.0134699745,0.02122148,-0.009716307,0.019963725,0.055759363,0.007933316,0.005741503,-0.0012778612,0.010506728,-0.001497536,-0.038773116,0.034512967,-0.030030739,0.01250578,-0.03319847,-0.025070148,0.031954173,0.022087552,0.0124978395,0.011379629,0.009511532,0.015471173,0.020061662,0.0032279417,0.014509569,-0.03323443,-0.021128077,0.0076667294,0.014494739,0.026295627,0.00937534,-0.024540056,0.010798827,-0.008841679,-0.020307183,0.019690296,-0.007531753,0.018656189,0.009598812,0.02156579,-0.004924411,0.010814099,0.037956093,-0.018505968,-0.022051642,-0.064595796,0.020341927,-0.032471705,-0.014508983,-0.003695515,0.013278608,-0.0076935715,0.010468855,-0.041968416,0.010847548,-0.002287052,0.009444175,0.03179765,0.0075248117,-0.0010295467,-0.024941847,0.03479178,0.00027408783,0.0209284,-0.049308658,-0.0035856934,-0.0038313172,0.008015142,0.017667698,-0.018498117,-0.028419083,0.0064347996,0.044034973,0.006602892,0.03233009,-0.030740533,-0.00064734725,0.0033418187,-0.040095285,0.011877414,-0.05377279,-0.0042230994,-0.003612561,0.018913118,-0.005997522,0.011892761,-0.016065562,0.0057654753,-0.03473111,0.04348741,0.047374837,0.034337435,-0.0034455878,-0.008625684,0.0034988648,0.0033622114,-0.010780266,0.032931685,0.03583889,-0.015819902,0.001267615,-0.002055576,-0.0053784163,0.0019107936,-0.0070395246,-0.030570654,0.019736582,0.04110682,0.0020715063
apricot3.jpg,-0.010945925,0.012283116,-0.012723615,-0.0031168747,0.02492731,-0.0147229675,0.008470253,0.02126734,-0.019096944,0.0166219,0.045405835,0.015085187,0.030421529,0.017457716,-0.032238368,0.04113435,0.010850072,-0.01366915,0.021586932,-0.008565261,0.023239844,0.12520795,0.029817786,-0.022030775,-0.055460017,-0.012847401,0.010476855,0.0057356753,-0.050076928,-0.025733436,0.045439724,-0.010258124,0.03311435,0.033912186,0.017687203,0.0019911528,0.007432529,0.0054290197,-0.021239374,0.0013377994,-0.071340814,0.032755367,-0.016419003,0.042102512,-0.027363094,0.004934411,-0.0123566035,-0.054981194,0.033341266,-0.033168625,-0.005945712,-0.018424964,0.027908096,0.037902698,0.009067748,0.021536054,-0.019411102,0.04851557,-0.021202419,-0.026583266,-0.016203765,-0.018973121,-0.012801553,-0.026400741,-0.03323653,-0.01016121,0.008724738,0.0026718925,-0.055409834,-0.07511956,0.009301687,0.011878296,0.0241815,0.061712835,0.02813352,-0.002941868,-0.039907325,-0.01181193,-0.026563238,0.036275953,-0.033800706,-0.024628216,-0.06370194,0.01625386,-0.015817683,-0.060141426,-0.0122349365,-0.0002174288,-0.03565344,0.05318844,0.019920021,0.01170121,0.0026078862,-0.012471102,0.016009532,-0.03630109,0.03332115,0.02263814,0.008737831,0.033967435,-0.0011220743,0.009906185,0.008080155,-0.0064992732,-0.0043182136,0.022982884,0.005855739,0.0027069978,-0.024320291,0.021119745,0.03514644,0.01906996,-0.0104529895,-0.027522108,-0.019313049,-0.03307408,-0.045065634,-0.006083949,0.009575781,0.011661079,0.008258122,-0.03818856,-0.001588347,0.012893846,-0.020109015,0.020980392,-0.0086568585,0.018740129,0.008491997,-0.03359214,-0.015707092,-0.033644494,-0.043829508,0.006093179,-0.024194974,0.047174513,0.0051113283,-0.0046518715,-0.018873557,-0.01397274,-0.015880888,0.0155489035,-7.786573e-05,-0.007449295,-0.014617748,-0.0043356908,0.020249309,0.03150962,0.011050893,-0.019623058,-0.018313084,0.00663999,0.021927346,-0.009568748,0.026173087,0.022066705,-0.020928957,0.0079141185,0.013581922,-0.013876126,0.006499681,-0.029809818,0.0024577715,-0.0001025351,0.05231042,-0.03591988,0.021737525,-0.050069716,-0.017135715,0.0016257655,-0.00035457397,-0.024029985,-0.004160693,-0.03693007,-0.04471248,0.012913064,0.012802353,0.0057100537,0.00054805365,-0.00081955956,-0.0045661237,0.047238696,0.008405574,0.002277331,0.021267897,-0.009274622,-0.009156131,-0.008171277,-0.020383865,-0.033827435,-0.03171018,-0.010389299,-0.00011530772,0.020335881,-0.027071169,-0.015257677,0.022650156,0.0031056767,-0.0010941385,0.015011015,0.014995533,-0.019698983,0.0020721462,0.025203038,-0.0005062875,0.025287377,-0.0034386767,-0.002000213,0.012557231,-0.002987812,-0.00469544,0.02546302,-0.0011808713,0.04844677,-0.0059016054,0.00394565,-0.003513572,-0.034194853,-0.037197154,0.042580247,-0.08799794,0.054305863,0.018004434,-0.0056338934,0.010840636,0.0033776965,0.026770901,0.02759196,0.037090052,0.003373722,-0.026895123,-0.06973544,0.04015484,-0.017546697,-0.023335937,-0.052431826,0.010819404,-0.0022180153,0.01549875,-0.033951525,0.040398765,0.005076595,0.011743985,-0.018812349,-0.036407284,-0.021696823,0.0112004625,0.010254113,-0.010806523,-0.038272537,0.06478678,0.007839991,0.0014798741,0.010275475,-0.0064003104,-0.00065521145,0.028629329,-0.007068891,-0.0031685745,-0.02076595,-0.007066795,0.025152024,0.041320547,0.006216989,0.012724676,0.050026365,0.024829082,-0.0016964364,-0.015045184,-0.012790105,-0.0019028877,-0.014013324,-0.008587314,-0.04055234,0.025689762,0.021498244,0.002575714,-0.013705351,-0.0014330983,0.007622808,0.018661292,-0.0061111213,0.026003743,0.031220157,-0.022816546,0.009585583,-0.0012916656,-0.011429207,0.017005377,0.0027589593,0.010482372,-0.01163601,-0.04006279,0.019093052,-0.009127789,0.030367645,-0.022039134,-0.005954884,0.0478067,0.055557847,0.029619573,-0.045997255,-0.0053439788,0.014372741,0.003169974,-0.04573604,0.043442495,0.024176482,-0.025918813,-0.024632666,0.048870612,-0.022235502,-0.040349968,0.022308303,0.00035313016,0.0018741114,0.022128478,0.011658762,-0.047474746,0.011581368,0.0084265005,-0.008300223,-0.024311636,-0.012968552,-0.004279713,0.02024384,0.040332418,0.0147624975,-0.020038808,-0.018785093,0.00969826,-0.039554324,0.014670421,-0.038211055,0.00090377074,0.0013019146,-0.02356271,-0.014833849,0.017110866,0.0032013447,-0.0043459423,-0.019950725,0.03185021,-0.0024305722,0.033872295,0.030557157,-0.00408765,-0.0037196134,0.023910189,0.011068494,0.001127668,0.004775726,0.023734028,-0.0045041526,0.009572146,-0.044891655,-0.010953471,0.03159461,0.03348041,0.06427117,-0.00943486,0.12428395,-0.004487385,0.0039182683,0.030206522,-0.01733929,-0.0040397546,-0.018197412,0.04523129,0.00021068031,-0.021536006,-0.013481316,0.03296805,-0.008089286,-0.012778878,-0.002022656,-0.034202274,-0.0048439256,-0.031089965,-0.023637747,-0.029299358,0.011463507,0.07172358,-0.007817114,0.003826499,0.0513375,-0.04717298,0.031589627,0.0055673914,0.006247296,0.004692125,0.018188246,0.012592742,0.00051019684,0.010350287,-0.003978473,-0.01427731,-0.009715892,0.016142007,-0.022039065,0.003449988,0.01816034,0.0055119684,-0.005076776,0.0076489043,-0.0009100757,0.012404296,0.0024377338,0.007027512,-0.007630687,-0.010784135,0.019654546,0.034945,-0.002756141,0.0100980075,0.01660207,-0.01045189,0.019228185,0.0012023556,0.017568298,0.0030254966,-0.016308239,0.012803569,0.0014144436,-0.0048605236,0.0014192199,0.009423974,0.015060617,0.004612406,-0.013562478,-0.026314454,0.01787335,0.016730633,0.01754008,-0.07268924,0.017090073,0.02299669,0.0017353703,0.025626667,-0.006549507,-0.0010648388,0.0040233117,-0.0058154827,-0.007401147,-0.014383324,-0.025184339,-0.017420635,0.009406736,0.012780543,-0.008189363,0.0031495157,0.034949657,0.03869417,0.013830854,0.044854324,-0.007611489,0.009584378,0.45072514,-0.00885524,-0.032322854,0.04291775,0.0036476923,0.0061943335,0.037251133,0.011271907,0.033133954,-0.012072104,-0.026112782,-0.008364338,-0.021415897,-0.038244117,-0.030955974,-0.00456542,0.02309449,0.03214519,-0.05670095,0.0015539833,0.04233864,0.0038607288,-0.025782598,0.013191213,0.046741292,-0.013616261,0.0032364696,-0.0049749375,-0.015255699,0.036517724,-0.012172752,-0.007571961,-0.0070723086,0.021196304,-0.0018688925,0.02341251,0.0028948104,0.019723954,-0.031598184,-0.02775951,-0.01935704,0.0268816,-0.008515517,-0.010046518,0.002580482,0.039909527,0.022093061,-0.048736773,-0.03716825,-0.0011189034,0.0014283756,-0.0047495235,0.007156746,-0.046851356,0.04785185,-0.034843363,0.03281265,-0.025705535,0.013022011,0.001298842,-0.0025765616,0.024480656,0.0034519427,-0.056459684,-0.010382199,0.006624831,0.021014394,0.011804267,-0.013031551,-0.027338803,0.037708245,0.016906366,0.0063634194,0.010015477,0.015162984,0.0019814353,0.028033968,0.04213452,-0.0064656083,0.003661634,0.041083958,0.009349343,-0.022922598,0.0444759,0.042371325,-0.036106464,0.03497881,0.011509643,0.015863953,0.00858431,0.029467229,-0.017930178,-0.010878305,0.009097798,0.0066667334,0.015065287,0.025302887,0.004060867,0.019822124,0.008457027,0.015662981,-0.0052141743,0.004404788,0.025034843,0.034233607,0.020583864,0.029332433,-0.036797255,0.002320705,0.014191712,-0.044984378,-0.025024332,0.0158953,0.017200567,0.027030703,0.011933829,-0.0051887594,0.014739965,-0.0071349726,0.010564909,0.014186671,0.008781958,-0.001715774,0.005244702,-0.033896714,-0.036513485,0.07221864,0.009955938,-0.051971827,0.010225565,-0.016810026,-0.008507453,-0.014524946,0.0110368915,-0.05211224,-0.0095004095,0.016708521,0.03657556,-0.003802931,-0.008921092,-0.00073479966,-0.0027146854,-0.019536477,-0.0040010856,-0.030642621,0.0219654,0.030564897,-0.01057938,-0.014648587,-0.025572415,0.011851753,0.0061441925,0.0018074022,0.013968411,-0.033281513,-0.0053151324,0.02631593,-0.011161857,0.050929815,0.0021330065,-0.008979419,0.017303873,0.006201657,0.026601909,0.00289438,0.0068973093,-0.013818952,-0.019534139,-0.015576306,-0.019999526,-0.021516046,-0.013813082,-0.025133446,-0.023918608,-0.035351187,-0.015737426,0.0032440377,-0.0210044,0.019056669,-0.024329582,-0.013745243,-0.045789678,-0.014378657,0.064399794,0.03855714,-0.0122433,-0.05557816,-0.012836789,0.020770503,0.055677827,0.018523829,-0.020023096,0.015220727,-0.006779109,-0.019515831,0.019976487,0.024806375,0.0067477273,-0.02438841,0.0047921836,-0.00072827854,0.00085991283,-0.016504198,0.010766438,0.022896523,-0.008676737,0.020584691,0.012551502,0.009565684,-0.036857173,-0.029186716,-0.04064439,-0.0019104911,-0.016376063,-0.03688302,-0.019970331,-0.019670716,0.021117171,0.04321933,-0.027882067,-0.023422804,0.022835081,-0.0104641365,-0.02329227,-0.029005166,-0.012126694,-0.00599021,-0.016928922,-0.028269207,-0.019521713,-0.01403233,0.014769258,-0.09366053,-0.016389795,0.004674684,0.009579446,7.90212e-05,-0.02467455,-0.019222671,0.031505387,0.004345672,-0.002805941,-0.024733905,0.020565681,0.026320955,0.041784413,-0.0025593985,0.013212274,-0.015347721,-0.008150104,0.011944158,-0.04446868,-0.023146218,-0.034298997,0.04160286,-0.0044325544,0.01259954,-0.003947653,-0.027353749,0.010739617,0.044923335,-0.0011374382,-0.0134038925,0.015561748,-0.010350313,-0.0055644694,-0.0043279515,0.006264371,-0.009344918,-0.022423603,-0.02584554,-0.02755377,-0.0034212302,0.014938458,0.0010292283,0.02480856,0.018346513,0.08836483,0.026472181,0.031670764,-0.015613584,-0.014713222,-0.01078555,-0.03279545,-0.02317442,0.0067903907,-0.018164886,-0.007494017,-0.03470196,0.0071971877,0.027397994,0.012426136,-0.0010379378,0.011838584,0.010542015,-0.038813397,-0.08250443,0.013155078,-0.3972714,0.026813334,0.020967267,0.011620034,0.00998122,0.052319042,-0.05097674,0.015600322,-0.0058092475,0.0101253325,-0.03831417,0.010662084,-0.0034649698,-0.014969821,0.023181973,-0.012398322,-0.009176629,-0.035427906,-0.018184854,-0.013646626,-0.011984501,0.032604873,-0.00126548,-0.021865845,0.0103778,0.0075221113,-0.0018554779,0.024501603,0.067544356,-0.021284081,0.0066984696,0.010222432,0.003079342,0.006015543,0.025695013,-0.02802093,0.00750602,-0.03247584,0.026813991,-0.005604019,-0.0089477785,0.0035541847,0.023593277,0.0009498155,-0.024251137,0.022648854,-0.02289948,0.050379135,-0.0093766395,0.015258112,-0.025135841,-0.018263629,0.017424872,-0.006462927,-0.016538152,-0.039260563,-0.003831694,0.01992758,-0.03889414,0.02709935,0.0034093224,-0.018285798,-0.024139278,0.020314248,0.015395985,-0.038876224,0.015055044,-0.046451796,-0.030014098,-0.008326802,0.0050178757,0.00045828312,-0.01052971,-0.006927635,-0.007554233,0.0075950734,-0.019955056,0.022100056,-0.018839115,0.014372217,0.016742682,0.024442574,0.007200592,0.009819393,-0.017712705,-0.019972023,-0.0061630653,-0.035998393,0.00035692862,-0.010803646,-0.001300214,-7.231772e-05,-0.006742753,0.0038060478,0.019268336,-0.03393419,-0.02237923,0.0026749114,0.003046184,0.021272402,-0.026573446,0.022148976,0.014749862,-0.0046681175,0.0011180029,0.0077292495,0.02593742,0.02929968,0.03666227,-0.032021925,-0.02205298,0.024370752,-0.0092385,0.063584015,-0.02650643,0.019436806,0.005822492,0.0036038489,0.007885765,-0.017492035,-0.003152996,0.030144423,0.010520503,-0.0342015,0.022762932,0.016147682,-0.018795531,0.032624498,0.012674708,0.004124289,-0.020921135,-0.021176016,-0.020890336,0.016153095,-0.0044447817,-0.013070469,-0.019600552,0.014591222,-0.0032380067,0.018423568,-0.010116064,0.033492144,-0.0022488853,-0.011398406,-0.03755031,0.008213267,0.026243774,0.008954076,0.00415961,-0.017227262,0.022234865,0.046838038,0.034477994,-0.041475955,-0.017470833,0.0028292881,0.033121824,0.030268747,-0.0047016274,-0.029902223,-0.006426245,0.004582322,-0.033813067,0.028205082,0.052500412,-0.010989156,0.006714345,-0.0026350373,-0.011588606,-0.005456559,-0.06319219,0.06136629,-0.03331224,0.009309858,-0.028200135,0.0072127506,0.04047644,0.0028875344,-0.0054191,0.014837701,0.014509403,0.0127372015,0.027919954,-0.016466657,0.026864026,-0.023979647,-0.020146055,-0.0086854175,0.00069571735,0.035348646,0.0073720966,-0.010398656,0.015082455,0.004150367,-0.025028136,0.033317003,-0.029978761,0.027715717,-0.002014018,-0.010243697,-0.0011233423,0.0029259992,0.015657764,-0.041831028,-0.026958032,-0.019981991,-0.02141423,-0.023805147,-0.009594443,0.0019253283,0.034718994,-0.00227399,-0.001993088,-0.006084152,0.024709392,-0.015759625,0.001507066,0.037573654,0.033700075,0.0052803806,0.00017514231,0.034416564,-0.0027505306,-0.006683861,-0.035561416,-0.025565552,-0.024942707,-0.022391522,0.022575786,-0.014696447,-0.021606894,0.0016861785,0.04154581,0.004536964,0.008798743,-0.064102426,-0.011626264,-0.026621731,-0.037656367,-0.0065473197,-0.05563977,-0.013637987,-0.0026821643,0.027332336,-0.00832288,0.02521747,-0.040650837,-0.0032545377,-0.01624449,0.005187743,0.055727683,0.027745688,0.017647022,-0.005677712,0.006650349,0.02572554,-0.0064028413,0.024768567,0.018029464,-0.012495043,0.0139234895,0.0138517395,-0.019312026,-0.007946462,-0.014342847,-0.010369291,0.013550346,0.015626613,-0.013497293
berry1.jpg,0.015447954,-0.0018990035,-0.010476818,-0.020590622,0.01546616,-0.015713627,-0.015978886,0.035136636,-0.038131285,0.04381677,0.031942267,0.026387447,0.0056172367,0.022251999,-0.022798693,0.032159667,-0.007381439,0.021963034,0.009035963,0.039624736,0.047236126,0.10901842,0.05144365,-0.0009158703,-0.0024955068,-0.0072065964,-0.026788749,0.0060865064,-0.0039892117,-0.0024430868,0.038909573,0.045942757,-0.017002648,0.012828065,-0.0269826,0.01764977,-0.04916113,0.03039227,-0.034461938,-0.037331395,-0.024297016,0.01817799,-0.0603217,0.021751272,-0.011939829,-0.015162727,-0.03806127,0.06492515,-0.0013336164,-0.0104615195,0.018558305,-0.047292333,0.021291329,0.007871723,-0.016321532,0.012648562,-0.0041565346,-0.0038697354,0.00055600784,-0.020049639,-0.059204314,0.003536192,-0.002196586,0.002199941,-0.0046870233,0.004256827,-0.027030643,0.0096540805,-0.018850718,0.009785049,0.01621053,0.010615844,0.00783409,0.009996461,0.002046264,-0.035705343,-0.04534459,0.032211885,-0.009775078,0.019264245,-0.045961656,-0.0034577833,-0.028295636,-0.025677966,-0.010289234,-0.02116748,-0.022915676,0.034381136,0.0005788398,-0.00026559795,0.03854567,0.010841058,-0.0039634025,0.018819753,-0.022306394,0.0025258139,-0.016649099,0.0072327987,0.020145383,-0.0144628165,0.007490018,-0.021460518,0.002604362,0.012304059,0.004494066,-0.0021815675,-0.01500543,-0.046310365,0.02870147,-0.028688643,-0.005036025,0.0032027704,0.03378552,-0.005117786,-0.0047442513,0.008693915,-0.026683025,0.02580135,0.026672985,0.00022927653,-0.0021366475,-0.0047632656,0.011640809,-0.016443776,-0.062238958,0.02028977,0.017666806,0.051712878,0.0009620537,0.011954647,-0.02435718,-0.038536604,-0.010971237,-0.04871802,0.016886132,0.040502638,0.021513667,0.0061644698,-0.010810198,0.013443909,-0.019569578,-0.050433625,0.018497126,-0.005974692,0.024900246,0.01479003,0.013403424,0.027923094,-0.0047296565,-0.030667508,0.02078803,0.016055964,-0.01750538,-0.010334855,0.013799003,0.00046752027,-0.0039533065,0.0050133388,0.008892989,-0.045323245,0.018655457,0.012645799,0.0014808677,0.025185468,0.012227604,-0.009612073,0.03350141,-0.050761703,0.017711334,-0.055703692,-0.02525674,0.0043625045,-0.018189838,-0.035809804,0.020698199,0.067889914,-0.017246569,-0.049241073,-0.023470266,-0.013979567,0.04082158,0.009169831,-0.022236805,0.044997506,0.031482864,-0.006009019,0.018563781,-0.012960631,0.0060173403,-0.01324529,0.0049879993,-0.037298374,-0.006479823,-0.014542849,-0.010408224,-0.04420642,-0.034500867,-0.012905472,-0.006943009,0.06420836,0.011705461,-0.0113965515,-0.035332847,-0.028807169,0.010964977,0.06145984,0.018598245,0.0050258995,-0.048353653,-0.041230988,-0.018801184,-0.014543796,-0.070129275,0.028646868,-0.011214087,0.033348784,0.011283445,-0.0092081865,-0.001614599,-0.018372443,-0.0058340095,0.03112671,-0.03009491,-0.0265774,-0.0007357346,0.005759371,0.016483406,0.003194019,0.061808128,-0.024716904,0.021414023,-0.04095038,0.031927522,-0.037165888,0.01060842,-0.011316238,-0.0013305984,-0.053039327,-0.018192867,0.021886,-0.019864649,0.012003285,-0.03401929,-0.022834284,-0.04401209,-0.037119467,-0.019312823,0.03325499,-0.00796993,0.0045843697,0.05033951,-0.027383683,-0.0056394553,0.017379865,-0.010575389,0.013732443,0.038205884,-7.939526e-05,-0.026680414,0.011853884,0.01964163,0.011371383,0.03295899,0.0009834178,-0.031433947,0.06914496,0.0017135512,-0.03376527,-0.01075943,-0.00026791194,-0.0044879992,0.021385355,-0.04218257,-0.063598864,0.018412422,-0.01539104,0.02233883,-0.004161188,0.0072984067,0.02979152,0.035299663,-0.003914553,-0.009870657,0.02818327,-0.042392828,0.033722807,-0.0015412043,0.020132275,-0.009266743,0.0059020636,0.018685631,-0.016180506,-0.0054531544,-0.026493475,-0.003779107,0.016958939,-0.027768165,0.044856746,0.021509478,0.009913691,-0.015707925,0.0023704371,-0.07210705,0.019609567,-0.026596647,0.0024842513,0.011763511,0.0039773816,0.010832205,-0.006423318,-0.008062216,-0.0054250034,-0.022051927,-0.0056740637,-0.01584168,0.043266468,-0.02381256,-0.044831295,-0.05232539,-0.002584788,-0.040040158,-0.015532236,-0.039021436,-0.050355304,-0.03989392,0.01933069,0.05066046,0.031695668,-0.006535157,0.018033553,-0.007595054,0.005748209,0.010701265,-0.0059083044,0.012646525,-0.013707227,-0.014290868,-0.006399384,-0.003610617,0.04010137,0.0008539705,-0.013768439,0.047005203,0.0072598886,0.013930122,-0.010706215,-0.032074746,-0.0110852225,0.015182301,0.026289437,0.020244427,0.02203401,-0.008993266,0.0055107935,0.02075477,-0.023137067,-0.022425894,0.031011337,0.050038002,0.04210114,0.016534988,0.018825667,0.010807522,0.013738058,0.015490196,0.049903676,0.036301404,0.003181405,0.0153504945,0.03118892,-0.048315123,0.0015890267,-0.010899475,-0.064654045,-0.026482107,-0.010899357,-0.044206295,-0.004367619,0.031331588,-0.0045707994,0.014066167,0.03831233,0.011445716,-0.017230585,-0.0065467944,0.05280406,-0.027394393,-0.020573549,0.016539663,0.019932004,-0.03610496,-0.016195575,0.014320669,-0.017828079,-0.013900174,-0.0005333605,0.017301995,0.027936267,0.039252836,0.03252192,0.016558798,0.041251116,0.032827627,0.014456665,0.014996115,0.03626658,-0.045719627,0.039510682,-0.0003764687,-0.006239242,-0.07090465,-0.004476408,0.0126537755,-0.02834933,0.0013319908,-0.02056481,-0.06712421,0.018156743,-0.036869917,0.025726859,0.013155527,-0.053757288,-0.012525161,-0.0078099566,0.051223118,0.008293208,-0.020465866,0.017738901,0.0026350091,0.006534149,0.038953602,0.0049187792,-0.016604677,-0.019023264,0.08197724,0.041330963,0.022031447,0.021318596,-0.02640907,0.02213432,0.017145552,0.011002871,-0.058749717,0.038007498,-0.024661388,-0.029946629,-0.03801576,-0.0070075137,0.026021559,-0.02811228,0.0038627833,-0.020847855,0.02444825,-0.008469396,-0.03763414,-0.03211052,-0.0068506836,0.33715835,0.026239388,0.009964325,0.026011547,0.012716738,0.030724106,0.022727814,-0.01511724,0.011534941,-0.011718788,-0.021224594,-0.0506276,0.0151285995,0.017219389,-0.031083055,-0.0050758626,0.00040573048,-0.011468801,-0.074489795,0.024086805,-0.003858192,-0.00015451096,0.026115408,-0.001745632,-0.012573996,-0.008506075,0.017968535,-0.009190341,-0.015748156,0.0021895024,0.0015535144,-0.020900322,0.025733711,-0.018045219,-0.012348111,-0.003831914,-0.004156107,0.012972016,-0.01588152,-0.0054803914,-0.07455873,0.021680247,0.0119191045,-0.04626138,-0.037083652,0.015768554,0.015367009,-0.0021798895,-0.0019480098,0.031988174,0.020299355,0.012979209,0.0142180985,-0.08345177,0.07561441,-0.048663076,-0.0019522611,-0.027373865,-0.011416898,0.014703087,0.029874275,0.03901428,-0.0116660455,0.010103049,-0.022498412,-0.018481467,0.026551029,0.0415091,0.010609685,-0.015013639,0.019638553,-0.025625784,-0.04694085,-0.028000286,0.00068184047,-0.024149591,-0.017040987,0.004177001,-0.019051004,0.0046186456,0.015764453,-0.012571109,-0.00017194211,-0.01028958,-0.027202725,0.04003256,0.05821724,0.018479642,0.026378332,-0.009477161,0.024138851,-0.04648008,0.02311311,-0.021091431,0.021148967,0.026649043,0.026428552,0.01166593,-0.02345702,0.0054331413,-0.027091365,0.006277928,0.01657999,0.008424957,-0.0014629089,0.051081702,-0.016795896,-0.07760922,0.0026169699,-0.004399124,0.0056125913,0.0029724215,-0.02720262,0.02332675,0.014021405,0.021125916,0.006317011,-0.015476504,-0.026603231,-0.030496344,-0.018627018,-0.020847095,0.028045611,-0.012519825,0.01641049,-0.021628246,0.02552708,0.01124798,-0.044871345,-0.036199726,-0.006520503,0.101762645,-0.06547459,-0.050996095,-0.0072588394,0.008615232,0.05080934,0.020760734,-0.014511669,-0.010779704,0.010536177,0.00048441585,-0.0004676786,-0.06566708,0.024139911,-0.00649275,0.016638998,0.012993302,0.007457676,-0.008482171,0.0173417,-0.060061246,-0.0038600173,0.015980663,-0.14393122,-0.03547915,0.025509734,-0.014769821,0.048398,-0.0018398418,-0.014913359,0.001301585,-0.00012213463,0.048532527,-0.028238729,0.00043126443,-0.030770699,-0.034481995,0.041065272,0.06271502,-0.00046899324,-0.029201644,-0.008275805,-0.03241829,-0.13968329,-0.00369404,-0.02027544,0.012877872,0.0076480513,-0.04341709,0.017747423,-0.03282454,-0.04031103,-0.0085229445,0.037446767,-0.013165668,-0.013023627,0.025996719,0.028527588,0.07131154,-0.031431794,0.02394132,-0.0013688812,0.00041192627,-0.001674725,-0.009931837,0.00018162858,-0.032569334,-0.011742206,-0.01216129,-0.004404795,-0.024757504,0.03445385,-0.0020501462,-0.007202695,0.029360484,0.004260999,0.008395348,-0.046389975,0.0067028883,-0.004013247,-0.008098926,0.01812197,-0.011793215,0.01378014,-0.0044481657,-0.018164244,0.026760843,-0.010931605,0.000551466,0.027257642,0.026370127,-0.02549727,-0.021865454,0.059583344,-0.0066835373,-0.033047356,-0.010062371,-0.017355695,-0.0017774925,-0.0360002,0.041190673,-0.028310979,-0.03785504,-0.0036710054,-0.018460209,-0.033307005,-0.025502332,0.005115476,0.00775808,-0.015298978,-0.03894489,-0.052619547,0.004625843,-0.12365793,0.0024920008,0.0039253235,0.004844945,-0.021243455,-0.019356621,0.031060733,-0.0028256858,-0.020200338,-0.04376468,-0.0054564048,-0.0351504,0.037264366,0.011035348,0.009357105,0.054765325,0.016191076,0.009277468,-0.011758304,0.009651874,-0.0064767827,-0.012822963,0.052998137,-0.005865646,-0.021680482,-0.005950555,-0.014407989,0.0037470295,-0.012014266,0.08863028,0.014290149,0.048034906,-0.0020820338,0.011521445,-0.0016738398,-0.001640336,-0.019996526,-0.03835627,-0.04537559,-0.08225998,-0.017585894,-0.008847501,0.0064077284,-0.00282218,-0.03448541,0.013023701,0.018870827,0.027778177,-0.0021227992,-0.010303245,-0.023858445,-0.0044023725,-0.065467015,-0.00085252704,-0.30398706,0.04127082,0.03203497,-0.007403337,0.014363963,-0.006973076,-0.041804865,0.036571357,-0.013231194,-0.0019325146,-0.0033764045,0.006510418,0.029552432,-0.027417805,0.027738865,-0.026732998,-0.053214554,0.0035417476,-0.024860343,0.003720038,0.009707521,0.025831245,0.0031753725,-0.009843178,0.01297236,0.012447449,-0.0040596216,0.021719256,0.008549296,0.007485297,-0.0036861475,-0.0062798616,-0.012456719,-0.04328691,0.012993834,0.045343228,-0.034240652,-0.0370716,0.04764173,0.041909184,-0.009527292,0.00074032194,-0.012679388,0.0034047335,-0.018208578,0.026970593,0.00837423,-0.0056732562,-0.014058822,-0.053426877,-0.008973302,0.0030303695,-0.028938469,-0.0016235916,-0.020411348,-0.013877624,0.017861642,0.015641004,0.007851959,0.009701175,0.0109255,-0.012199229,-0.012473475,0.007052411,-0.037157018,-0.018730137,-0.0215918,-0.036264505,0.038953613,-0.029753188,0.011364706,0.017238844,0.0066347956,-0.048215877,-0.011804127,0.049413994,-0.0045067645,0.013674558,-0.023105405,0.016449273,-0.013125345,0.022564592,0.000682424,0.019945277,0.024455266,0.03803535,-0.016283805,-0.0222846,0.035625782,0.0043959613,0.025918642,0.014274305,0.021359246,0.006050416,-0.04931965,-0.008513362,-0.0042450144,-0.007098298,0.0045348317,0.042651385,-0.044260997,0.03848049,0.0020485646,-0.006143046,-0.04077098,0.0032305955,0.012804391,-0.0248063,0.028380288,0.017155362,-0.02713588,0.016719265,-0.0061791143,0.0076574455,0.017549677,-0.043539625,0.0034538826,-0.024831947,-0.00736079,-0.0142256105,0.023050366,0.002871977,0.049358055,-0.04878337,0.0031275188,0.016294109,-0.026503861,0.001431542,-0.030386245,-0.026480619,-0.035133727,-0.010073912,0.061952185,-0.03432292,0.0025767405,0.003994794,-0.00823167,-0.00036412055,0.023820441,-0.007957854,0.011211907,-6.176725e-05,-0.011720962,-0.052853942,-0.01361071,0.014143234,0.013527165,0.017001286,-0.013448884,0.0038146004,-0.048341043,0.02204095,0.0063679116,-0.02461871,0.036816694,-0.0019225716,0.010387338,0.04503608,-0.0004582627,0.0034967083,-0.030263182,0.008233398,0.012335493,0.012771806,-0.024287771,-0.008082282,0.04766302,-0.020666832,0.004461767,0.019475833,0.025046824,0.035648063,-0.0032201975,-0.021327244,-0.034387328,-0.011732556,0.050815392,-0.0025791996,-0.031138439,0.003744126,0.027396856,-0.0031586152,-0.014453585,0.007809204,-0.022938738,-0.044082306,-0.0066478355,0.012948661,-0.010745051,0.01639302,-0.0056818533,-0.018477237,-0.026447715,0.03946653,-0.002633971,0.025267297,0.0050500375,0.013033074,0.0025359485,0.0011193037,0.008770334,-0.0034697873,-0.04880993,-0.009476679,-0.0062760324,-0.10647914,0.03268391,-0.013023588,-0.05659699,0.013035309,-0.031226654,-0.041104898,0.005925155,-0.059861336,-0.020413542,-0.024495564,0.017037923,-0.013702635,-0.039848074,0.0083331885,0.023590324,-0.025249384,0.011550251,-0.03217987,0.0058846097,0.010253036,-0.008602576,0.004944643,-0.01908897,-0.016634004,0.0016504196,0.005960032,0.0030932103,0.009863051,-0.009954705,-0.037145935,-0.04724135,-0.022632651,-0.0367286,-0.020749558,-0.034196083,0.025910243,-0.040969726,0.00035079452,-0.026273966,-0.0066913287,0.0099416645,0.018374259,0.017662974,0.0021074598,-0.00073644565,-0.0077879494,-0.013249037,-0.0016180265,-0.003706382,-0.042241912,-0.015722321,-0.017999433,0.050979476,0.010267207,-0.021409608,-0.034640543,0.0027233253,0.038923007,-0.021736844,-0.0088671595,-0.0070720473,0.045413196,0.02046502
berry2.jpg,-0.020692533,-0.00022133937,-0.018787904,-0.027150253,0.021749392,-0.04091733,-0.016700577,0.02265519,-0.029205596,0.036425106,0.030072445,-0.012451509,0.006507569,0.028864942,-0.020771425,0.0318874,-0.024124637,0.028051276,-0.009735438,0.04662345,0.017375547,0.12807077,0.043755826,-0.0016701192,0.006813327,0.0072860303,-0.016282493,0.0071255583,-0.026989244,0.0030241923,0.036438193,0.038736615,0.0014054001,0.005955496,-0.016427433,0.005916866,-0.045483503,0.035392415,-0.01908942,-0.0074641616,-0.059177842,0.03243405,-0.10707233,0.0081784045,0.007781533,-0.0015830145,-0.032381114,0.01320148,0.011386752,-0.0022529955,0.008406931,-0.030944454,0.035189915,0.04389939,-0.0015426237,0.006701699,0.0037546868,-0.013897087,-0.009946669,-0.017752213,-0.030993411,0.008473063,0.029237287,-0.02669667,-0.034958508,0.0059290673,-0.015436185,0.0042955363,-0.024417339,-0.026405929,0.020820547,0.02133918,0.0012709337,0.0077186,0.0249204,-0.057723034,-0.062094763,0.022788823,-0.020168757,-0.0012209488,-0.06075312,0.0043414887,-0.015271706,-0.033344336,0.01983826,-0.02935357,-0.01074509,0.012346225,0.0030257935,-0.003007137,0.044694208,-0.001106109,0.0047272397,-0.00026284638,-0.0056476584,0.0059782146,-0.036408134,0.025450671,0.009880997,0.0062045474,-0.023144476,-0.02697714,0.0113064805,0.0026443368,0.004453505,0.009691924,-0.0047850483,-0.022553269,0.010688572,-0.020531805,-0.0034501276,-0.00080848695,0.014435567,-0.006560935,0.004003926,-0.012434851,-0.0054517607,0.018938536,0.018743722,-0.008129857,0.0049132393,-0.009820362,-0.009487783,-0.069023795,-0.037769977,-0.015249839,0.026889237,0.03171543,0.011312301,0.002953417,-0.018345835,-0.030924495,-0.016423026,-0.032507826,0.012669939,0.01036097,-0.0038527427,0.01752538,-0.03025584,0.028305203,-0.0056721573,-0.030511081,-0.0088371355,-0.015532204,0.0008972642,0.03437159,0.006538071,0.024032505,-0.011631377,-0.032802466,-0.0014106384,0.03285842,0.0013020324,-0.018629834,0.017406391,0.010501986,-0.00035016605,0.00030517663,0.0016818916,-0.045043983,0.026862983,0.062510714,0.020756053,0.004312633,0.008295978,-0.032929935,0.042397138,-0.055343818,0.015801886,-0.034300823,-0.025738517,-0.009072535,0.010958047,-0.020892346,0.009895986,0.048472438,-0.001666683,-0.021852955,-0.0084399,-0.025411425,0.0496273,0.040413,-0.005166641,0.027538113,0.021630477,-0.0043338565,0.03444407,-0.025998723,0.012581063,-0.0079704635,0.022154795,-0.020045409,0.0022274903,-0.008079023,-0.020056244,-0.03511318,-0.012595454,-0.022819007,-0.00585653,0.05517885,0.018988932,-0.020031413,-0.013745422,0.0011595652,-0.0030209804,0.038383044,0.0010441885,0.0012750124,-0.034044344,-0.044908077,-0.02692271,-0.032658387,-0.03044362,0.039574325,0.014607558,0.02669377,0.015120653,-0.008739291,-0.014333779,-0.0018792885,-0.005488171,0.029527465,-0.0098836785,-0.008541801,-0.00282978,-0.012126294,0.032024823,0.010485852,0.064729385,-0.04386884,-0.01021915,-0.019944672,0.025250517,-0.026275508,0.026853116,-0.026015334,-0.007452068,-0.04622766,0.0026691246,0.028529895,-0.014194177,0.029136093,-0.023113219,-0.021715371,-0.03426973,-0.033628166,-0.0073037795,0.028116778,-0.0035029338,0.012917382,0.06724019,-0.004779012,-0.011544192,-0.025154673,0.017649971,0.0014216183,0.028080795,-0.019317424,-0.022566332,-0.0054105218,0.02654185,0.00019830662,0.05441546,-0.0066641113,-0.006924454,0.060696848,-0.013374894,-0.018664658,-0.020015767,0.004193743,0.0074771885,-0.0015910687,-0.026780134,-0.03706481,0.0013120396,-0.022122119,0.010374421,-0.027815087,0.0043853167,0.013689201,-0.005414327,-0.0048813815,-0.011970088,0.04014066,-0.029873155,0.026861139,-0.0041515552,0.005352801,-0.010759675,0.0027607793,0.018037789,-0.038369425,-0.010277187,-0.008954454,0.009364389,0.020405805,-0.03168779,0.012538727,0.026460905,0.039609827,-0.013596877,-0.0038393233,-0.040518653,0.007847268,-0.01792168,-0.0066004223,0.023369119,0.025655793,0.022063114,-0.0078035397,0.004864119,-0.0121367015,-0.013376765,-0.030421821,-0.013922007,0.023374466,-0.033119224,-0.050795484,-0.03249902,0.0026512397,0.0073791286,0.0066045206,-0.02004413,-0.03164741,-0.024334298,0.027039671,0.063438065,0.00054186507,0.016149368,0.020745756,0.023907404,0.0037490476,0.0021925517,0.023296019,-0.005755347,-0.015804054,-0.036001705,-0.009705879,-0.0005716242,0.030121673,-0.014042371,0.016354695,0.03351584,-0.01403405,0.012927165,-0.00093029643,-0.055727895,-0.034340337,0.01624951,0.090711795,0.0077299243,0.012861903,-0.01666699,0.019115059,0.019441238,-0.022107765,-0.025434842,0.02224018,0.045265153,0.02194403,0.0032603226,0.029381163,0.029175928,0.0033542116,0.032401305,0.049754914,0.047888946,-0.021203108,0.03620338,0.01579128,-0.04081132,-0.0024259533,-0.009601707,-0.045703523,-0.026454393,-0.017104384,-0.026501622,-0.016458718,0.0038296666,0.007326465,0.015913365,0.023656502,0.014736846,-0.05556976,-0.008753858,0.060542207,-0.0061323214,-0.028143795,0.05282956,-0.013514407,-0.014101625,0.0061574588,-0.009548204,-0.017500088,-0.032974336,0.010560172,0.010377174,0.008479359,0.036596645,0.00931209,0.03347074,0.04223691,0.04418488,0.00894962,0.0006183807,0.02511733,-0.029696733,0.036711987,-0.0052868095,-0.0066349097,-0.053426504,0.008034561,0.0036468487,-0.033816323,0.0027871612,-0.021437323,-0.1252761,0.004230303,-0.043986905,0.03177917,0.00662961,-0.048714265,-0.0001623968,-0.016421696,0.039965082,0.024875607,0.0020160081,-0.009475899,0.017341532,-0.0122654345,0.0423972,0.016669048,-0.002718553,-0.003857865,0.022319706,0.014829393,0.007639539,0.032574188,-0.031602636,0.016265169,0.032310028,-0.0053378763,-0.042143952,0.030860163,-0.050975107,-0.013060456,-0.035205767,0.023668928,0.033375822,-0.047110707,-0.02612954,-0.0015410384,0.008865215,-0.0030204137,-0.04615202,-0.02490724,0.023010712,0.36099222,0.030056162,0.018903356,0.0062561957,0.029042415,0.029785445,0.010189997,0.0072335666,-0.020861883,-0.0066058165,-0.0067404197,-0.033671547,0.010089378,0.0017533456,-0.017124351,-0.022416152,0.030019857,0.01306414,-0.08596772,0.0009945898,0.02186456,0.0151640335,0.027200662,0.0015735442,-0.017815428,-0.015033689,0.025955187,-0.025120078,-0.012839421,0.014263378,0.0022541345,-0.039452303,0.00028969772,-0.023210678,-0.001410878,-8.465361e-05,-0.004083407,-0.002449849,-0.029585337,-0.0010279432,-0.078163244,-0.009262248,-0.01351655,-0.022036068,-0.04146976,0.03451193,0.03468266,-0.015271957,0.010340399,0.035050087,-0.007311817,0.008422925,0.019789338,-0.07674938,0.044748813,-0.028546585,-0.017701555,-0.029492782,-0.03390796,0.025789745,0.040905207,0.030280473,0.0089537995,-0.027133835,-0.00600856,-0.026524264,0.037975118,0.031213973,0.0127020795,-0.007478128,0.015764331,-0.018624153,-0.07527772,-0.044638902,-0.0063466365,-0.028422343,-0.007760975,0.016470078,-0.008675498,0.0083688535,0.03499964,-0.0059997803,0.0033262894,0.008812794,-0.038624715,-0.012105247,0.023505256,0.022453219,0.0325359,-0.021507664,0.010734095,-0.044618428,0.0035830531,-0.019733137,0.008412078,0.029634044,0.050593134,0.011419661,-0.023565859,0.037810355,-0.006245387,0.008049796,0.026503686,0.003138885,0.00475384,0.037417546,-0.02735736,-0.058294825,0.0022510898,0.01846948,-0.034911275,0.017370733,-0.0289082,0.041738335,-0.00561424,0.022460418,0.0024523928,-0.020675894,-0.00033333673,-0.031621497,-0.01128374,0.00076570123,0.034828242,-0.01973693,0.016680641,-0.025782945,0.038795438,0.032916643,-0.043450173,-0.042273477,-0.020576589,0.05843641,-0.05262651,-0.06443412,0.0019578994,-0.0065691797,0.019680409,0.049338937,-0.0042720423,-0.0055291625,0.03663027,-0.013260788,0.006125117,-0.06595472,0.024674777,-0.007746919,0.0039251237,-0.010598312,0.026003698,-0.0006123853,-0.0049752407,-0.052742336,-0.002232048,0.020604506,-0.12276042,-0.029486682,0.022495594,-0.012003655,0.025949564,0.0025005727,-0.0007936622,0.03285872,0.008239079,0.053328834,-0.026038347,-0.0013129828,-0.019467333,-0.06382262,0.027766593,0.04063377,-0.011766559,-0.06559428,0.004208489,-0.023351243,-0.12696768,0.00041165817,-0.010567039,0.020456243,0.00084956706,-0.016988939,-0.002535465,-0.031061985,-0.014199508,-0.0036143432,0.015670737,-0.04029619,0.033353556,0.020266362,0.038583368,0.084110335,-0.011755405,0.0032750508,-0.0033885757,-0.00948375,0.0010640499,-0.015304734,0.009350202,-0.0054759667,-0.006900381,0.0059891413,0.026592791,-0.022664826,0.032787368,0.014503773,-0.023796137,0.034480274,-0.0006645368,0.008148608,-0.032224495,0.007136113,-0.008727313,-0.0047093867,0.040531326,-0.0072820964,-0.023676515,0.009847246,-0.030567499,0.034393508,-0.029292814,0.006061531,0.021302737,0.022459788,-0.0041181,-0.009663242,0.04641506,-0.023862485,-0.03399597,-0.00095483847,-0.026852433,0.009729706,-0.014376373,0.020067899,-0.027328864,-0.006084905,0.0008538038,0.0017741923,-0.029086905,0.004267018,-0.0023816505,0.028629376,-0.0271764,0.0034345319,-0.07396646,0.0058467444,-0.064017534,-0.0075534326,0.004080666,0.0073554064,-0.010038546,-0.01767169,-0.0038392823,0.022988612,-0.043484658,-0.050841384,-0.00982265,-0.02319614,0.048714098,0.05475519,0.014370212,0.036758862,0.028241338,-0.008097445,-0.008544969,0.023979327,0.0102279065,0.0077421423,0.032438204,-0.013784611,-0.04636737,-0.022400998,-0.016302714,0.00066992315,0.0039020157,0.049066465,0.010392571,0.05645684,0.021554822,0.022126444,0.012382931,-0.00045198234,-0.026393402,-0.018931482,-0.042799592,-0.044585884,-0.048004214,-0.0385515,0.0078040524,0.02432022,-0.013915492,-0.0029274537,0.0019924773,0.02373733,-0.013548811,0.005309672,-0.019549197,0.0065555186,-0.028843693,-0.003731859,-0.32312068,0.010812141,0.035382576,-0.004427616,-0.011555809,-0.00076398696,-0.026937516,0.049614374,-0.035756666,0.0043222797,0.009109783,0.007988785,0.0019403881,-0.013639972,0.035889138,-0.023697687,-0.04452157,0.010537768,-0.029902667,-0.034845535,-0.013893345,0.020343356,0.02387828,-0.010934449,0.005382679,0.002157438,-0.01942745,-0.014332283,0.020348715,0.01340244,-0.003225379,-0.013892893,-0.02921958,-0.01516152,0.012892631,0.10665521,-0.015830211,-0.025620556,0.05854105,0.056546476,-0.0020554725,0.0022356429,0.014930115,0.02820333,-0.02008576,0.032789882,0.00014299955,-0.0024504645,-0.008460597,-0.031974994,-0.0071399845,0.010267311,-0.016496444,0.0070321797,-0.031594023,-0.029723654,0.021852342,0.02599639,-0.020013025,0.006208913,0.014533046,0.006324826,-0.011766383,0.01177493,-0.03768514,-0.01623206,-0.035402,-0.0364858,0.054635588,-0.039681684,-0.00928815,0.01337793,0.01414136,-0.029939992,-0.012948328,0.048760902,0.002002829,0.003794413,-0.009103936,0.004416319,-0.02467458,0.045658752,0.008447604,0.030651089,0.03321226,0.032421906,0.004111089,-0.0010704197,0.034192316,-0.008449745,-0.007336551,0.016474351,0.017277058,0.00027798634,-0.0584513,-0.0016647036,-0.01653261,0.020108715,-0.004516358,0.035220847,-0.024737567,0.020508396,0.030211665,-0.016536394,-0.035803612,-0.022611028,0.00018527695,-0.011591432,0.0068530566,-0.0045163026,-0.044583317,-0.0031828748,0.025702218,0.0073724077,-0.007744698,-0.028843889,0.01112473,-0.017062178,-0.008012523,-0.015205858,0.007058272,-0.029465342,0.06400736,-0.10288481,0.013916762,0.0010886778,-0.03460426,0.0063508083,-0.03155797,0.0066291112,-0.024606202,-0.009282637,0.04945693,-0.043753415,0.012581662,-0.011673388,-0.01893995,0.00582452,-0.0015413186,0.00872508,-0.00030739862,-0.014745509,-0.018532222,-0.01892316,-0.013558658,-0.00086813717,0.017006846,0.037044514,-0.03241109,0.00068103254,-0.013804115,0.009444217,0.01111909,-0.019434376,0.034848575,0.0041213804,0.0015318831,0.0451692,-0.027581375,0.0037828719,-0.02048453,0.018952155,-0.0054929564,0.04472594,0.0050827875,-0.011935852,0.051438645,-0.014547879,0.012805757,0.015071631,0.009820385,0.016459564,0.0028521158,0.00026792334,-0.030292017,0.006617652,0.047683734,0.010093542,-0.0006634087,0.010072845,0.015026448,0.01696326,-0.0011105128,0.013332907,-0.013389751,-0.07248055,-0.017510757,0.01850254,-0.013652413,0.01038109,-0.00034831563,-0.022800084,-0.014851247,0.028646404,-0.025368312,0.02611747,0.0054603904,0.013209016,-0.0016633362,0.010863779,0.011720118,0.0026377589,-0.036608607,-0.0065235784,-0.017798675,-0.04695766,0.01712029,-0.01366678,-0.0579048,0.03839099,-0.021797718,-0.024064751,-0.0011400146,-0.043224063,-0.0061806934,-0.009559252,0.017833242,-0.004066721,-0.04226033,0.014546424,0.029448831,-0.04671262,0.02370785,-0.0076572993,0.0058396906,-0.0017157497,-0.01299261,-0.016519902,0.0038850056,-0.02103137,-0.011121767,0.011746248,-0.006210205,0.016001921,0.014340682,-0.0611018,-0.043184705,-0.01936311,-0.03162521,-0.04436294,-0.01497978,0.0130244335,-0.015716787,0.0019535902,-0.023273038,0.012216227,0.038226686,0.044549752,0.01738339,-0.006742954,0.015677083,0.011354132,-0.0021471141,0.00050378253,-0.0062397793,-0.02256503,-0.020589523,-0.013565669,0.03559659,0.010553296,-0.030266875,-0.0036128748,0.010611913,0.0053253556,-0.02385835,-0.016696481,-0.020850442,0.0648824,0.03602854
berry3.jpg,0.014313219,0.0011251913,-0.034838345,-0.043677088,0.005911179,-0.014835853,0.0038444162,0.04035633,-0.0038576568,-0.004654049,0.0042842706,-0.013261562,0.033275463,0.019272631,-0.012979302,0.029938215,-0.0062873517,0.014943083,-0.030561678,0.024739446,0.038962446,0.1409016,0.05782762,0.040312823,0.005863806,-0.0202841,0.00029872629,-0.033914864,-0.0394876,0.0046309736,0.025190389,-0.00967997,0.014591702,0.026592888,-0.022613702,0.024608362,-0.020291839,0.017678466,-0.018011868,0.042531803,-0.0368704,0.018225592,-0.043331362,0.044067387,-0.025787802,0.06536727,-0.03626343,0.014122978,0.019078905,-0.022409678,0.014587472,0.016273404,0.043176096,0.06475566,-0.015867036,0.022829512,-0.020921368,-0.0051951045,-0.011052539,-0.008468778,0.011359371,-0.018463563,0.014149419,-0.033124447,0.015842311,0.043262664,0.033313446,0.011995807,-0.05163771,0.008872266,0.05297613,0.008894284,0.008937847,0.052810684,0.019931104,-0.024274912,-0.040213108,0.01861349,-0.052530453,0.0038759364,-0.05208424,-0.0063418,-0.027454197,0.038840383,0.0053902017,-0.022742312,0.02438487,0.02873548,-0.01709196,-0.009969109,0.042425264,-0.030803885,-0.040732514,-0.013345214,-0.014018023,0.02968242,0.010140575,0.017985,0.026110234,-0.009456544,-0.031233786,-0.022058114,-0.00050123926,-0.011394551,0.046700273,0.026028348,0.006369959,-0.033255905,-0.012065428,-0.0008470004,-0.0039199935,-0.006231103,0.022518741,-0.039222777,-0.05892953,-0.0089313015,-0.014147446,-0.024130803,0.029163402,-0.029946536,0.018830184,-0.028072497,0.0059063933,-0.0696749,-0.067928165,0.020044565,0.010218772,0.031147277,0.0054038055,-0.001444041,-0.052242033,0.014779973,-0.008186441,-0.043410856,-0.027428655,0.0023812815,-0.01681384,0.024850048,0.016614728,-0.0008672152,-0.008442249,-0.043274947,-0.03733023,-0.01160098,-0.007727788,0.028390456,0.027984058,0.025709841,0.014470683,-0.023936784,-0.013369103,0.032781553,0.017158344,0.0073190117,0.029157508,0.015094315,-0.019314,0.0009255317,0.008775301,-0.04733425,0.014528509,0.0018852991,0.014953448,-0.0059543704,0.02004056,-0.05126355,0.033178374,-0.034655165,0.008055067,-0.004558254,-0.02188397,-0.010366334,0.0013459085,-0.031481322,0.022398654,0.05573078,-0.03666834,-0.026124615,0.015973574,-0.0039056574,0.0100737875,-0.017678756,0.02156783,0.023544775,0.014057997,-0.03467873,0.022637429,-0.0243046,0.021992095,-0.038784567,-0.03118529,0.017527796,0.011221657,0.012546448,-0.049135804,-0.020871792,0.0025730906,-0.0025282344,0.015569222,0.0071252836,0.022197725,0.012938487,-0.03046832,0.019909991,-0.03690718,0.024767373,0.06663641,-0.00879074,-0.05777644,-0.026625171,0.00020853298,-0.023423998,-0.021595314,0.025477264,-0.008782555,0.027364157,0.023295157,-0.002119506,-0.009999119,0.026452895,0.038931288,0.019347858,0.016108323,0.007335314,0.014628151,0.0055332286,0.047686037,0.003634815,0.0463513,-0.016319698,-0.003882244,-0.004189559,-0.0004541512,-0.020788752,0.00073315034,-0.01738914,-0.026607862,-0.0470115,-0.008321872,0.0064349347,-0.0004530952,0.0307351,-0.0067120446,-0.04148489,-0.026037483,-0.032660365,-0.015950497,0.03978672,0.007195953,0.018460605,0.064178854,-0.023526682,-0.01307599,-0.012689948,-0.029570622,-0.008222938,0.0029091625,0.0015471732,0.002542941,-0.0017291611,0.039710563,-0.01460989,0.04446251,0.04306412,0.019427896,0.043743704,0.009433744,-0.0064650183,-0.036310434,-0.016669283,0.02358279,0.0024503213,-0.013496693,-0.016452847,-0.0030905476,-0.0058136852,-0.03829347,0.013543532,-0.0018078553,-0.003323566,0.033215888,-0.04403929,-0.013411157,0.035775,-0.020200234,-0.005488631,-0.0024110966,-0.00028372562,0.007908998,0.013061956,0.0028000562,-0.03436444,-0.008900414,-0.038982905,0.030131958,-0.0009327432,-0.0206954,0.020449387,0.01599365,0.022928476,0.017179253,-0.04063175,-0.027016792,-0.002659496,-0.008591719,-0.017193157,0.026776426,0.02651986,0.022342503,-0.02685687,0.0044864784,-0.018237142,0.011685392,-0.00068026077,0.004269938,0.005439247,0.039838046,-0.063405335,-0.0020506,0.023386128,-0.010687219,0.004930813,0.002391987,-0.0056311474,-0.044704054,0.014548283,0.09335261,0.0025241675,0.020887038,0.015714496,0.0018285726,-0.0018243995,0.011839593,-0.038935494,-0.034300555,-0.017733166,-0.042696547,-0.042149987,-0.0076860804,-0.004326152,0.0040467475,0.01984326,0.053938825,0.016818399,0.04739641,0.011669291,0.025251895,-0.050225057,0.01891869,0.10353299,0.045973796,-0.033777963,0.036615934,0.0041540684,0.0155595,-0.027687237,-0.016778188,0.057620276,0.007872242,0.073552236,-0.0120673105,-0.0037164118,0.008857542,-0.0030524707,-0.031860925,-0.0036689155,0.050509978,-0.021564774,0.035770897,0.009269685,-0.014083847,-0.023135846,-0.002902835,-0.0084010465,-0.009215074,0.05154343,-0.02834127,-0.015242819,-0.021776909,0.03147403,0.018274445,-0.0040480844,0.098168865,-0.00794738,-0.02837266,0.0442129,-0.0014794719,-0.008317569,0.021580966,-0.017926196,0.0034322978,-0.020774186,-0.01730987,-0.013533933,-0.03483758,0.023441615,0.010430965,-0.038029507,0.022931924,0.0077402587,0.02931729,0.03390921,0.044038955,0.012276256,0.03299013,-0.01426583,-0.025230186,0.055330537,0.027155034,-0.0062221712,-0.035721768,0.005816495,0.025324563,-0.014277456,-0.04280578,-0.0027926175,-0.033035576,-0.018906971,-0.038177963,0.025951128,0.018750295,-0.04728877,0.0064534093,-0.010463983,0.064714156,0.01819935,-0.011945626,-0.025092294,-0.0043786443,-0.021241635,0.025744844,0.03758764,-0.02047985,0.027088229,-0.020564169,0.041261617,0.0037278996,0.013296412,-0.011064165,0.0120077925,0.016683662,0.007823335,-0.06020513,0.028690716,-0.016413763,-0.0002398214,-0.02325554,0.0020906273,0.022268457,-0.009317944,0.01079835,0.004578209,0.008335722,0.0010518038,-0.001544906,-0.05128504,0.0010706431,0.33279744,-0.0015131299,0.009135452,0.04123527,0.022092678,0.029018367,0.037041493,-0.016935933,0.00621724,-0.019183727,-0.02927564,0.01518191,-0.005842555,-0.024757085,-0.041907765,-0.042909246,0.0031561926,0.0060917325,-0.07643238,0.0007639416,0.046386074,0.0062175584,0.018285612,0.0053453776,0.034886487,0.004424347,-0.0031952425,0.009592408,-0.041428693,0.01624905,0.009789855,-0.036392238,-0.0075913467,-0.019076133,-0.008452641,0.041274834,-0.020459214,0.011484841,-0.00683799,-0.022761576,-0.043996464,0.005311712,-0.006667517,-0.008695736,-0.011857969,-0.009757411,-0.008380119,-0.024669042,-0.012449458,-0.0017396443,0.032509897,-0.0006918931,0.003761623,-0.099633425,0.045409445,-0.018728374,-0.0008491909,0.006858096,0.014148634,0.0072575766,-0.002502293,0.031532414,-0.00034720846,-0.038885478,-0.019807097,-0.01897762,0.027141888,-0.003473316,-0.02943208,0.025409183,0.049532503,0.013158829,-0.048759446,0.0030942175,0.024790341,0.009924833,0.061920274,-0.014302347,0.012187424,0.0008947254,0.051251303,-0.014069913,0.016734103,0.017796367,0.07776827,-0.056459635,0.06460806,0.031831734,-0.017903673,0.014537981,0.008878741,-0.014543589,0.033546932,-0.0011729014,0.024563195,0.04861535,0.075753234,0.0050006364,-0.004827206,-0.02070621,0.037163984,-0.01953433,0.030220123,-0.0008738176,0.016190363,-0.0069947704,0.018659577,0.006477869,-0.024184544,0.012350305,-0.0145362,-0.0064894264,-0.042392693,-0.0023862794,0.029194305,0.0086936485,-0.019369204,0.016528815,0.01474305,-0.04927348,-0.01106302,-0.019869741,0.019695759,-0.021632837,0.0027562121,-0.04175392,0.06379472,0.04515956,-0.058855448,-0.020672958,-0.050520826,0.0059300475,-0.056674015,0.008962943,-0.005159703,-0.013759008,0.021809695,0.034574397,0.008829598,0.0068398044,0.009573625,0.004567007,0.04280449,-0.0039790943,-0.027865076,0.007103722,0.0073340614,-0.010669972,-0.015253198,-0.0019945148,0.012796011,-0.015698526,0.02247485,-0.0043488964,-0.1209795,-0.020125244,0.015622325,0.006751547,0.030813985,0.008097621,0.0013960747,0.02130725,-0.018150205,0.07308379,-0.040496904,-0.027181206,-0.009764749,-0.056428775,0.025219277,-0.0070872596,-0.009887993,-0.011478473,-0.009305487,-0.0384798,-0.09508711,-0.006961389,0.018402064,0.020783296,0.027353967,0.0017107474,0.026305795,-0.024943464,-0.032974,-0.021731645,0.0002821935,-0.029102096,-0.059258103,-0.012092208,0.008457462,0.075550444,-0.009889061,0.018369181,0.0077431425,0.007396015,-0.0037930561,-0.00594125,0.022848297,-0.026081324,-0.0036279783,-0.0044475384,0.0316859,-0.042888954,0.043478053,0.014128978,0.013768654,0.036890704,0.025452638,-0.019250667,-0.07482034,-0.027087076,-0.01821673,-0.045325466,0.021793703,0.020081237,-0.007421834,0.021783229,-0.060283195,0.0022323085,0.01859769,0.008193645,0.010550802,0.047169615,-0.0028501193,-0.04798935,-0.006551958,0.011588094,-0.0037273655,-0.021286787,-0.041976262,-0.00958396,-0.041289583,0.019995319,-0.021417985,-0.015622198,0.003214389,-0.019396992,0.019091925,0.00011931471,-0.00976859,0.035461668,0.0050880043,-0.004841547,-0.023402618,-0.024086233,-0.014081669,0.0065387464,0.036043204,-0.038546365,-0.021356577,-0.012907077,0.026306387,-0.013496278,-0.040737927,-0.01943888,-0.033888776,-0.033752047,0.026274877,-0.0050616944,-0.012375707,8.397529e-05,-0.0023384963,0.003953032,-0.021582102,0.044759195,-0.017625038,0.016510576,-0.019480566,-0.0013145058,-0.040529933,-0.020491008,-0.053327378,0.009283941,-0.0046013715,0.061794385,0.010278563,0.00073861924,0.026810503,0.057543576,-0.016844021,-0.020589327,0.0093985675,-0.01991179,-0.018166842,0.009621682,-0.0032508087,-0.030556714,-0.009017029,-0.0059095267,-0.048440877,-0.02038409,0.015518093,0.023220498,-0.006411342,-0.012495439,0.015878852,-0.01238627,-0.08225427,0.016043272,-0.29976234,0.022296818,0.0100983735,0.022361208,-0.006981088,0.011473374,-0.04817671,0.035110362,-0.04160897,-0.0006639464,-0.02014546,-0.015911594,0.011997411,-0.019489544,0.0072487555,-0.024177002,-0.008634397,-0.03454707,-0.05052221,-0.0174462,3.3214208e-05,0.057202008,-0.02373075,-0.0026969765,0.040009633,0.012871833,0.0034921877,-0.028556941,0.0201852,0.040463842,0.005435636,-0.007225461,-0.032713935,-0.008502316,-0.0462233,0.02736321,-0.031384308,-0.012345422,0.031537205,0.02389156,-0.015515468,-0.021800403,-0.008754866,0.025709579,-0.068162404,-0.04526404,0.0029975618,0.04521397,0.02664932,-0.04385768,0.0034991475,0.0019071231,0.0035247835,0.010722309,0.03386331,8.542872e-05,0.0025505833,0.03246499,-0.035301846,0.029772215,0.02466741,-0.013729354,-0.032473233,0.03639364,0.0076161097,-0.04966013,-0.008752119,-0.009915436,0.0005014909,-0.016388321,0.0064972877,0.0094169285,0.017468886,-0.036500048,-0.0025588784,0.06587598,-0.028706998,0.032677136,-0.035095714,0.009548602,0.017366096,0.02655498,-0.0091327885,0.00010537549,0.028690772,0.01779634,-0.010185682,-0.042845994,0.014651464,-0.00033433514,-0.04734813,-0.033768263,-0.01653207,0.040201757,-0.03532885,0.0033081241,0.00787576,-0.00076623517,0.014027819,0.037173364,0.0031791327,0.014999421,0.03294148,-0.022239456,-0.0011586867,0.008286584,0.010099444,-0.044926215,0.012560664,-0.009984292,0.016072733,0.012351475,0.030946054,0.056929898,-0.028502334,-0.04356393,0.0052434676,0.017872121,0.0054235905,-0.024269126,-0.0034125631,0.0038249148,0.012552597,-0.10442741,-0.015852945,0.033836525,-0.009002893,0.022402506,-0.027244877,0.02221108,-0.030951414,-0.026323335,0.050068956,-0.033535838,0.0170988,-0.054778464,0.0020235628,-0.0008828313,-0.004494045,0.026078576,-0.0016135026,-0.020131588,-0.00089777,0.0025940149,-0.035604462,-0.022092296,-0.011922109,0.025210273,-0.020903824,-0.0003023064,0.0146077555,0.043640483,0.01454494,-0.019389583,0.04592242,0.02040759,0.03125214,0.01152788,-0.021580568,-0.0053263246,-0.00047802797,0.009684173,7.0739305e-05,0.049934424,0.045572303,-0.0066899755,0.030458158,-0.011363121,-0.039619427,-0.021220498,-0.031520847,0.0039772047,0.019339371,-0.0011787756,0.014778504,-0.0043255333,0.020738294,0.016035857,0.0129349185,0.026452025,0.0458413,-0.011880967,0.002965457,0.0019187481,-0.0036963257,-0.005724206,-0.006573939,0.0296015,-0.0082336115,0.021731392,-0.006641769,-0.018753592,-0.011785125,0.061485212,-0.025411803,0.012000599,0.02147214,0.00079989823,-0.04836648,0.01442874,0.005140632,-0.00935215,-0.0012535154,-0.013242459,-0.020763805,-0.0576598,0.026275534,-0.03239896,-0.02663774,-0.006634917,-0.016588865,-0.047308113,0.015007571,-0.020959431,-0.011071836,-0.017434735,-0.0010056682,0.021279374,-0.015444306,0.027781105,0.014097508,0.013174694,0.00681455,-0.0065222853,-0.039329465,0.007878279,-0.023992414,-0.020253235,0.019784732,-0.025280736,-0.007659823,0.014499747,-0.007270199,-0.01748133,0.030547708,-0.056639414,-0.008048092,-0.02967,-0.0302883,-0.01757725,-0.03762034,-0.0006343796,0.030486742,0.015470076,-0.010613605,-0.012194103,-0.0020267435,0.022124063,0.016030654,-0.00912037,0.04142954,0.026674692,0.027937554,-0.007332,-0.034776308,-0.002654912,0.0010037655,0.0062353704,0.01813676,-0.0014442524,-0.0065845945,-0.01738482,0.0031047298,-0.022093501,-0.01070659,-0.03306214,-0.027193256,0.013019385,0.004075211
citrus1.jpg,-0.03356474,-0.004502014,-0.029514749,-0.045860454,0.02498333,-0.0040182276,-0.02154984,-0.03121799,0.011495313,-0.0017623192,0.028718155,0.013511455,0.03787897,0.046059437,-0.028767705,0.014352322,-0.0051583736,0.0142633105,0.014166398,-0.011909424,0.035273846,0.07022104,0.034140617,-0.009716112,-0.013843985,-0.009545465,-0.02296474,-0.0010408991,-0.030997783,-0.013987629,0.008793988,-0.005580027,0.027798561,0.011297971,0.011436811,0.030491734,-0.024803562,0.005430197,-0.009037617,-0.0044790916,-0.06937285,0.013645007,-0.068208165,0.03653969,-0.05413968,0.018571205,-0.0069419425,-0.04452493,0.01484843,-0.02983813,0.008325605,-0.0072093946,0.08340336,0.0029163936,-0.021231435,0.005338182,-0.01687191,0.009629305,-0.03038634,-0.015396277,-0.010139788,0.008869799,0.021226203,-0.013709897,-0.029108884,0.012256601,-0.0071381642,-0.020167481,-0.013246843,-0.0076573277,0.010370325,0.0031292678,-0.039454065,-0.0013550877,0.012659251,-0.011016282,-0.04922617,0.005118301,-0.03861316,-0.0038847683,-0.065031536,-0.04173755,-0.016760722,-0.012173133,0.007397044,-0.033437278,-0.014581821,0.0066707106,-0.017707188,0.008687872,0.066347025,-0.018002393,-0.021200007,0.02328305,-0.0071279807,0.002891882,-0.0119325835,-0.0042941966,-0.018124888,0.004527934,-0.021214398,-0.017817412,-0.019872876,-0.044539105,0.044420775,0.030634945,0.0113783125,0.0056258775,0.006792734,-0.020874236,0.044422653,0.003124753,-0.012103274,0.026094778,-0.014346245,0.019013373,-0.040613502,0.019714711,0.022160966,0.0028963112,-0.0023729908,-0.01935944,0.0142610865,-0.021223761,-0.014684136,-0.023126973,0.002122116,-0.0026607406,-0.002621646,0.04752409,-0.035585135,-0.015728261,-0.03555602,-0.008812384,0.01698538,-0.008254986,0.003410068,0.019442638,-0.041948214,0.031616904,-0.024668442,-0.001523473,-0.0045799506,-0.040296063,-0.026867073,0.011554033,-0.0028854662,-0.0012367176,0.026108596,-0.019175684,-0.00029450931,0.013320758,-0.018398967,0.010968873,0.027133571,-0.015803335,0.0047682263,0.013886131,0.016506054,-0.00097287586,0.014530643,0.030941138,-0.013120367,-0.0045876047,0.020392979,-0.015184812,0.014782177,-0.033907697,-0.01633826,-0.019393941,-0.024075417,0.035842106,-0.025525505,-0.063008234,-0.01388847,0.037967812,0.02980192,-0.013789083,-0.024592223,-0.02319717,0.06717964,0.00804592,0.02335174,0.017527627,0.028221777,0.013902052,0.025736786,-0.021379508,0.020260686,-0.005595872,0.00016151532,-0.026784996,0.013884912,-0.005911052,-0.0012702404,-0.03449533,-0.0146056255,-0.010583196,0.016000194,0.027786538,0.01942813,-0.021376073,0.019015653,0.004802516,0.0003781371,0.045719396,0.040003728,0.017770046,0.008511113,-0.036345612,-0.02982201,-0.0024379373,-0.032654326,0.03965382,0.00032989823,0.022687422,-0.029255083,0.03259076,-0.05301976,0.009141188,-0.048976023,0.026368238,0.010194106,-0.006273124,0.021733915,-0.028688965,0.0012815506,0.0037751512,0.06357914,-0.034887515,-0.04849671,-0.03488329,0.01809423,-0.045120064,0.013822103,-0.08421029,-0.021321543,-0.056558188,0.03440592,0.061114054,-0.03327561,0.014678415,-0.032919154,-0.017565085,-0.00491698,-0.049852803,0.010836031,-0.004718959,0.007999427,0.028515186,0.066525936,0.010598368,-0.022968855,0.01661932,-0.0009467051,0.043632597,-0.00151772,-0.0064603854,-0.032062676,-0.0052330354,-0.006647688,0.03973559,0.036024176,-0.02762483,0.014286918,0.07480915,0.013502815,-0.02670923,-0.0489602,0.030461919,0.00042474363,-0.013033298,0.025401432,-0.061281785,0.009461889,-0.028279005,0.0077046175,0.015443272,-0.024868539,0.041759323,-0.0006059175,0.019132255,-0.0028626698,0.023995373,-0.027580682,-0.011578149,-0.0028279058,-0.01710843,-0.008908359,-0.045775823,-0.01071115,-0.042856324,-0.0031644832,-0.031850908,0.003355437,0.042615946,0.011296156,0.04303863,0.0025268812,0.03674916,0.014421104,-0.0035814424,-0.052099023,0.020177158,0.028984474,-0.015154773,0.029739192,0.046798382,-0.005362682,0.017161872,0.024540193,-0.034241732,-0.021335581,0.025496338,-0.018040162,-0.0010111936,-0.025935242,-0.02998591,0.017263683,0.0037267755,-0.02213545,-0.0072544473,0.01916749,-0.03254961,-0.016865214,0.042557918,-0.0007660457,0.008181159,0.016232956,0.022017082,0.0053066676,-0.028674208,0.027292587,0.00036054163,-0.057316437,-0.012500004,-0.0048476756,0.018320033,0.019268226,-0.028526952,0.025930028,0.005789114,-0.014474041,0.022125838,0.003607912,-0.010840126,-0.04886299,-0.014689917,0.039033882,0.05604006,-0.0069920113,-0.0077340486,-0.026047044,-0.005036392,0.041069064,0.0048038927,-0.030550424,0.0065000057,0.04996911,0.01326885,-0.0078674145,0.12737544,0.00852006,0.0028241556,0.035722632,-0.009199524,0.020326754,-0.021458913,0.0054608854,0.031741403,-0.022897976,0.018496618,0.015173377,-0.01753263,-0.004738525,0.0067017935,-0.015060751,-0.0050675035,-0.02479044,0.026266385,-0.01644997,8.5123706e-05,-0.034919973,-0.023597198,-0.008796278,0.023222439,-0.0019478438,-0.010468577,0.028669555,-1.2475457e-05,0.010356852,0.00040436382,0.053102665,0.008401523,0.033146493,-0.06069901,0.014199143,0.022299327,0.034797918,0.010245403,0.049796805,0.032414153,0.039608933,-0.036333177,7.487658e-05,0.0038314906,-0.0007014771,0.01440353,-0.01916102,0.014330586,-0.028895224,-0.00704011,0.037294835,-0.047312114,-0.009964554,-0.011750266,-0.077865094,0.0029427623,0.0047954964,0.02356406,0.020506216,-0.011874309,-0.027296778,-0.021863446,0.020397866,0.009031471,0.0060202386,0.02937229,-0.016159967,-0.002236839,0.021952558,0.017612472,-0.005619131,0.010346896,0.025462203,0.014209055,0.009318539,-0.0026472423,0.0031936474,-0.011154725,0.047229372,-0.0012411725,-0.03418258,0.04548751,0.008824433,0.028068973,-0.03490538,0.023371207,0.004041802,0.003316825,-0.013078263,0.006159701,0.002213896,-0.013390803,-0.028129358,0.027104905,-0.019617189,0.38627616,-0.00897965,-0.015995583,0.013669636,0.045744184,0.02873322,0.013164574,-0.030844223,0.0033118522,-0.014245767,-0.008905721,0.010683068,0.00700774,-0.00012164336,-0.0068953903,-0.017548453,0.036699962,0.04157784,-0.08212629,-0.006070243,0.017895695,-0.008026923,0.03712811,-0.017840419,0.01381129,-0.01958081,-0.00044730928,-0.024414273,-0.02261635,-0.0009930135,0.0057858704,-0.021358676,0.011707301,0.002398644,0.016737975,0.039350644,0.0015301434,-0.008615064,-0.0131566785,-0.023528576,-0.018899787,-0.02391629,0.011725574,0.013599684,-0.03349576,0.040041983,0.021275315,0.014451379,-0.00076672947,0.013165824,-0.011685716,0.0018688424,-0.012065927,-0.0759729,0.009234996,-0.0820534,-0.009611517,0.020048976,-0.027222438,-0.0039282297,0.01930296,0.013530641,0.011633242,-0.04371675,0.0027250426,-0.0041433903,-0.028640373,0.022553857,-0.02369816,-0.0051230956,0.01224388,-0.00073980744,-0.03404316,-0.13457875,-0.025280166,0.015618455,-0.008697636,0.008291025,-0.020751813,0.024511537,0.015395719,-0.0049976395,0.025604425,0.011414631,-0.017946271,-0.0066200667,-0.019907327,-0.004478414,0.021587826,-0.019816764,0.004491066,-0.01794593,-0.036283843,0.016167732,0.0077927993,-0.00084132113,-0.018335681,0.005187768,0.007553289,-0.00158176,-0.019868193,0.0058599,0.00851346,-0.014781938,0.013266411,0.025618166,-0.0243602,-0.04551811,0.0221015,0.036167163,-0.047474436,0.010256992,-0.039625682,-0.0012493727,0.014461301,0.0055837017,-0.014206289,-0.005663532,-0.008004945,-0.008516983,-0.027822066,0.013282499,0.0071324687,-0.011527367,0.005914681,0.018207548,0.019553155,0.023595722,0.010000968,-0.018284302,-0.01897613,0.0031447865,-0.03255985,-0.08325697,-0.0062165726,-0.027783329,0.03148619,0.053262293,0.0029887548,0.007721911,0.046977364,0.018393904,0.0065974607,-0.00572572,0.020055471,0.014091345,-0.025623932,-0.024563441,0.007385672,-0.013158001,-0.013287623,6.898359e-05,0.006502481,0.002083788,-0.12396076,0.015833274,0.025074353,-0.01807384,-0.004595266,0.01867396,-0.01994817,0.0003589856,0.009948957,0.041382164,-0.0145955505,0.016522853,-0.025227834,-0.026541976,0.008237436,0.031166287,0.02158345,0.004434553,0.028491072,-0.019480845,-0.09956028,0.0082832705,-0.02047081,0.0124469,0.0061435816,-0.046982676,-0.012350417,-0.055060055,0.031415295,0.00020718924,0.003400173,-0.017704459,0.048098274,0.010964912,-0.012301872,0.080873676,0.0028288963,0.0038483583,0.029033475,0.008275719,-0.014600839,0.017583521,0.023280425,-0.014387944,0.012975144,-0.019197386,0.03174248,-0.031958397,0.02075583,0.02246091,-0.008948966,0.039188188,0.0154742105,0.0003752166,-0.040386524,-0.0035343282,0.0005741953,-0.011505765,0.041467134,-0.05364161,-0.019787902,-0.0013330431,0.004920899,0.019141119,0.0072342,-0.0045160786,0.014297821,0.043879993,-0.009079936,-0.014400551,0.024270544,-0.005809313,-0.05117626,-0.005326168,-0.032273512,-0.0072486172,0.0013588028,0.036608655,-0.15092161,-0.026327932,0.008520839,-0.0034467003,-0.0083165085,-0.023847403,0.006836159,0.053385135,-0.041388113,0.04356816,-0.024616756,-0.023452844,-0.087719254,0.017027704,-0.013949662,0.042914357,-0.0070416816,-0.02035451,0.017295059,0.0043431167,-0.047608953,-0.027193658,-0.008470211,0.004013502,-0.008629777,0.042245865,0.027670402,-0.0096435435,0.044032056,-0.012957453,-0.008860943,-0.014409845,0.026153352,-0.012054858,0.006722942,-0.00012966029,-0.026150415,-0.021046806,-0.010438718,-0.010980455,0.02761838,0.0095795,-0.0043233815,0.013097826,0.0032461272,0.009759988,-0.019225994,0.021644218,0.008408955,-0.061101533,0.0029206881,-0.06903104,-0.0037960843,0.019861104,0.0020400172,0.0132390745,-0.014632267,0.003994137,-0.0022029728,0.020159338,-0.021720348,0.015023266,0.00909547,0.0037404546,-0.007523324,-0.021118378,-0.34272978,-0.01741122,0.0020193504,-0.011116547,-0.0068870056,-0.003999979,-0.026058782,0.041615937,0.0025170532,0.028004577,-0.001038429,0.014797388,0.0026778763,-0.015787914,0.05806592,-0.057775028,-0.014434577,0.026561428,0.020208187,-0.053093705,-0.004563632,-0.016706957,0.0025118575,0.014562821,0.042459823,0.0007995414,-0.015031152,0.01018303,0.022790981,0.0028552779,0.0007184713,-0.016601903,0.010100467,0.047924723,0.01229668,0.10101502,-0.05548637,0.019959802,0.019028282,-0.018705579,0.025606332,0.01999147,-0.018329136,0.014354423,0.010593837,0.015539988,-0.013605498,0.019604526,-0.007176382,-0.017298035,-0.0071305945,0.00068382535,-0.019468017,-0.014711529,0.00043134947,-0.03844106,-0.013952723,-0.0070196553,-0.003840444,0.0068243835,0.011340944,0.009287336,-0.020501817,-0.01935329,0.049968787,0.0059866505,-0.007851554,-0.0042638173,-0.013951242,0.012363157,-0.0022004086,-0.0036637816,-0.016012648,-0.020570068,-0.015606877,0.04238977,-0.022126906,-0.036640424,0.0024099557,0.033878434,0.004414534,0.0236493,0.019727813,0.006410762,0.009047506,0.03498268,0.028791543,-0.015450457,0.027983401,-0.0030346946,-0.017288746,-0.0023560612,0.0038636543,0.025779897,-0.012014086,-0.04250117,0.0016436164,-0.0035675196,-0.010636774,0.0066516614,-0.016725946,0.038500022,0.009642254,-0.0026067062,-0.013949782,-0.04296751,0.007863012,0.008401996,0.019275267,-0.03287466,-0.035524838,0.0122623015,0.013070088,-0.030582296,-0.0122479005,-0.0074717137,-0.02800712,0.009479065,-0.0053100074,-0.006132721,0.022410931,0.0068201125,0.02005958,-0.03690612,0.016327692,0.010942623,-0.04382817,0.028035726,-0.017244788,0.0072588087,-0.033104867,0.00020068377,-0.022888234,-0.026803005,0.024417456,0.015500502,0.001592504,-0.04580275,-0.017226988,-0.012086204,0.020052498,-0.038948737,0.012742547,-0.018950615,-0.03403418,-0.0016513226,-0.0021383252,0.015925918,0.004015673,-0.0058825524,-0.0056052594,0.011132318,0.028557066,-0.003815003,0.03452397,0.009859814,0.022178007,0.014492294,-0.010313584,-0.00441213,-0.019013649,0.060312174,0.005555042,0.014381683,0.012722151,0.010272244,0.004487922,-0.028124059,-0.0071807643,-0.019401064,-0.015212108,0.023933006,0.0042503164,0.00035796931,-0.007444913,-0.002462396,0.039058886,0.0034826514,0.009602252,-0.011818031,-0.0093694115,0.0030760928,0.02087427,0.012433812,-0.008068931,-0.038720127,-0.008614691,0.03602375,0.05241063,-0.030744044,-0.030153943,-0.0071776533,-0.00048464435,0.036880795,-0.02161132,0.007816013,0.0052132737,0.03188636,0.051602755,0.024362288,-0.0053653666,-0.014894234,-0.0674774,-0.009369448,0.0018621731,-0.07802533,0.015119116,-0.013226092,-0.05187692,0.048468154,-0.0053056194,-0.0169018,-0.023260161,-0.036498558,0.0008918922,-0.010456338,-0.021297604,-0.013530817,-0.020194119,-0.0043504187,-0.027813232,-0.011912987,0.030884217,0.008787171,0.008285899,-0.008672461,-0.017995477,0.021433655,0.025936276,-0.018267173,-0.024444262,0.030987974,-0.0047245664,0.02615757,0.037201297,-0.03790571,-0.0037531445,-0.0016229253,-0.021876628,-0.01651878,-0.025132295,0.023818959,-0.025935758,0.03747367,0.0014236546,0.032545403,-0.00084152166,0.021942187,-0.025520476,0.041666925,-0.0010469038,0.014353005,0.002112629,0.024142144,-0.029734408,-0.0015002413,0.0014392883,-0.00063414965,0.014881998,-0.050767653,0.01592335,-0.01499727,0.015782204,-0.0030885823,-0.004410969,-0.027515128,-0.02289887,0.04421758,0.042302504
